 {"learner":{"attributes":{"scikit_learn":"{\"_estimator_type\": \"classifier\"}"},"feature_names":[],"feature_types":[],"gradient_booster":{"model":{"cats":{"enc":[],"feature_segments":[],"sorted_idx":[]},"gbtree_model_param":{"num_parallel_tree":"1","num_trees":"600"},"iteration_indptr":[0,6,12,18,24,30,36,42,48,54,60,66,72,78,84,90,96,102,108,114,120,126,132,138,144,150,156,162,168,174,180,186,192,198,204,210,216,222,228,234,240,246,252,258,264,270,276,282,288,294,300,306,312,318,324,330,336,342,348,354,360,366,372,378,384,390,396,402,408,414,420,426,432,438,444,450,456,462,468,474,480,486,492,498,504,510,516,522,528,534,540,546,552,558,564,570,576,582,588,594,600],"tree_info":[0,1,2,3,4,5,0,1,2,3,4,5,0,1,2,3,4,5,0,1,2,3,4,5,0,1,2,3,4,5,0,1,2,3,4,5,0,1,2,3,4,5,0,1,2,3,4,5,0,1,2,3,4,5,0,1,2,3,4,5,0,1,2,3,4,5,0,1,2,3,4,5,0,1,2,3,4,5,0,1,2,3,4,5,0,1,2,3,4,5,0,1,2,3,4,5,0,1,2,3,4,5,0,1,2,3,4,5,0,1,2,3,4,5,0,1,2,3,4,5,0,1,2,3,4,5,0,1,2,3,4,5,0,1,2,3,4,5,0,1,2,3,4,5,0,1,2,3,4,5,0,1,2,3,4,5,0,1,2,3,4,5,0,1,2,3,4,5,0,1,2,3,4,5,0,1,2,3,4,5,0,1,2,3,4,5,0,1,2,3,4,5,0,1,2,3,4,5,0,1,2,3,4,5,0,1,2,3,4,5,0,1,2,3,4,5,0,1,2,3,4,5,0,1,2,3,4,5,0,1,2,3,4,5,0,1,2,3,4,5,0,1,2,3,4,5,0,1,2,3,4,5,0,1,2,3,4,5,0,1,2,3,4,5,0,1,2,3,4,5,0,1,2,3,4,5,0,1,2,3,4,5,0,1,2,3,4,5,0,1,2,3,4,5,0,1,2,3,4,5,0,1,2,3,4,5,0,1,2,3,4,5,0,1,2,3,4,5,0,1,2,3,4,5,0,1,2,3,4,5,0,1,2,3,4,5,0,1,2,3,4,5,0,1,2,3,4,5,0,1,2,3,4,5,0,1,2,3,4,5,0,1,2,3,4,5,0,1,2,3,4,5,0,1,2,3,4,5,0,1,2,3,4,5,0,1,2,3,4,5,0,1,2,3,4,5,0,1,2,3,4,5,0,1,2,3,4,5,0,1,2,3,4,5,0,1,2,3,4,5,0,1,2,3,4,5,0,1,2,3,4,5,0,1,2,3,4,5,0,1,2,3,4,5,0,1,2,3,4,5,0,1,2,3,4,5,0,1,2,3,4,5,0,1,2,3,4,5,0,1,2,3,4,5,0,1,2,3,4,5,0,1,2,3,4,5,0,1,2,3,4,5,0,1,2,3,4,5,0,1,2,3,4,5,0,1,2,3,4,5,0,1,2,3,4,5,0,1,2,3,4,5,0,1,2,3,4,5,0,1,2,3,4,5,0,1,2,3,4,5,0,1,2,3,4,5,0,1,2,3,4,5,0,1,2,3,4,5,0,1,2,3,4,5,0,1,2,3,4,5,0,1,2,3,4,5,0,1,2,3,4,5,0,1,2,3,4,5,0,1,2,3,4,5,0,1,2,3,4,5],"trees":[{"base_weights":[-3.9825292E-5,-1.7999978E-1,1.0865518E0,-5.9478813E-1,1.9601567E0,3.9468333E-1,-5.9769183E-1,-1.4314188E-1,2.411127E0,2.395266E0,-1.733414E-1,5.589303E-1,-5.983401E-1,-3.8099965E-1,2.8262222E0,8.30074E-2,2.6369643E0,8.135868E-1,7.7591795E-1,7.832206E-1,-5.989885E-1,2.6688979E0,-4.6880484E-1,-1.659267E-1,2.9529278E0,-2.0513773E-1,1.3787168E0,2.7241137E0,3.504362E-1,-1.0306404E-1,4.8668727E-1,6.317334E-1,-1.3722841E-1,4.8668727E-1,-1.7979388E-1,-1.6054162E-1,8.7602425E-1,8.5712856E-1,-1.4586116E-1,8.9218646E-1,-1.1740142E-1,-7.450761E-2,8.5712856E-1,-5.1127482E-2,7.0441175E-1,8.364836E-1,-1.7948286E-1,7.500445E-1,-1.2925373E-3],"categories":[],"categories_nodes":[],"categories_segments":[],"categories_sizes":[],"default_left":[1,0,0,0,0,0,0,0,0,1,0,0,0,1,0,0,1,0,0,0,0,0,0,0,1,0,0,0,1,0,0,0,0,0,0,0,0,0,0,0,0,0,0,0,0,0,0,0,0],"id":0,"left_children":[1,-1,3,5,7,9,11,13,15,17,-1,-1,19,21,23,25,27,-1,29,31,33,35,37,-1,39,41,43,45,47,-1,-1,-1,-1,-1,-1,-1,-1,-1,-1,-1,-1,-1,-1,-1,-1,-1,-1,-1,-1],"loss_changes":[7.026003E4,0E0,5.6314734E4,3.7902344E1,2.3931812E4,7.718669E1,2.1969238E1,3.1479163E3,1.0923172E4,4.531189E0,0E0,0E0,1.2175293E1,1.1061599E3,1.4316797E2,6.865625E2,3.7729219E3,0E0,3.8898866E0,1.1733017E1,1.0387695E1,9.4604614E1,2.3351312E2,0E0,2.3579102E1,1.9984953E2,5.0274957E2,3.89075E3,5.311415E2,0E0,0E0,0E0,0E0,0E0,0E0,0E0,0E0,0E0,0E0,0E0,0E0,0E0,0E0,0E0,0E0,0E0,0E0,0E0,0E0],"parents":[2147483647,0,0,2,2,3,3,4,4,5,5,6,6,7,7,8,8,9,9,12,12,13,13,14,14,15,15,16,16,18,18,19,19,20,20,21,21,22,22,24,24,25,25,26,26,27,27,28,28],"right_children":[2,-1,4,6,8,10,12,14,16,18,-1,-1,20,22,24,26,28,-1,30,32,34,36,38,-1,40,42,44,46,48,-1,-1,-1,-1,-1,-1,-1,-1,-1,-1,-1,-1,-1,-1,-1,-1,-1,-1,-1,-1],"split_conditions":[4.7E1,-1.7999978E-1,1.555E3,3E0,9E1,4.8E1,2.00001E0,2.9E1,2.00001E0,3.5E2,-1.733414E-1,5.589303E-1,1E0,7E0,2E0,2.00001E0,6.641382E-1,8.135868E-1,2.00001E0,2.00001E0,2.00001E0,2.00001E0,2.00001E0,-1.659267E-1,1E0,2.9E1,2.8579E4,4.8E1,1E1,-1.0306404E-1,4.8668727E-1,6.317334E-1,-1.3722841E-1,4.8668727E-1,-1.7979388E-1,-1.6054162E-1,8.7602425E-1,8.5712856E-1,-1.4586116E-1,8.9218646E-1,-1.1740142E-1,-7.450761E-2,8.5712856E-1,-5.1127482E-2,7.0441175E-1,8.364836E-1,-1.7948286E-1,7.500445E-1,-1.2925373E-3],"split_indices":[11,0,9,5,12,11,100,4,92,13,0,0,49,6,13,162,37,0,2,1,66,106,38,0,71,4,5,11,6,0,0,0,0,0,0,0,0,0,0,0,0,0,0,0,0,0,0,0,0],"split_type":[0,0,0,0,0,0,0,0,0,0,0,0,0,0,0,0,0,0,0,0,0,0,0,0,0,0,0,0,0,0,0,0,0,0,0,0,0,0,0,0,0,0,0,0,0,0,0,0,0],"sum_hessian":[1.0777351E5,6.943536E4,3.8338152E4,1.3108963E4,2.5229188E4,3.796224E1,1.3071001E4,4.4544727E3,2.0774715E4,1.1938849E1,2.6023388E1,2.6859856E0,1.3068314E4,4.124922E3,3.2955084E2,1.8371555E3,1.8937559E4,9.421584E0,2.5172648E0,5.5636177E0,1.3062751E4,1.1460885E2,4.010313E3,1.1788188E1,3.1776266E2,1.5036168E3,3.3353876E2,1.8242084E4,6.954745E2,1.3395668E0,1.177698E0,2.355396E0,3.208222E0,1.177698E0,1.3061573E4,8.249498E0,1.06359344E2,2.0020866E1,3.9902922E3,3.1588727E2,1.8753936E0,1.483596E3,2.0020866E1,1.2869171E2,2.0484703E2,1.789661E4,3.454748E2,9.76541E1,5.978204E2],"tree_param":{"num_deleted":"0","num_feature":"214","num_nodes":"49","size_leaf_vector":"1"}},{"base_weights":[-3.7878833E-4,2.7310908E0,-5.807586E-1,2.8088117E0,-5.632453E-1,8.9368284E-1,-5.870254E-1,-5.756062E-1,2.8492994E0,-5.8770686E-1,6.7325366E-1,6.6931874E-1,-5.95225E-1,5.122391E-1,-1.7919596E-1,1.8275458E0,2.9474096E0,2.1015432E-1,-5.9592396E-1,-3.1872612E-1,1.7234917E0,-5.9596616E-1,2.5435293E0,2.623835E0,-1.7965062E-2,2.9869258E0,1.8422987E0,3.0998996E-2,-1.7960373E-1,-4.188435E-1,1.815461E0,-4.8350593E-1,2.7070646E0,-4.503304E-1,-5.99502E-1,8.525636E-1,-1.16214804E-1,8.4945E-1,1.9776337E-1,-6.747088E-2,8.588101E-1,-1.1525292E-1,8.968916E-1,-1.7331646E-1,8.971351E-1,7.759521E-1,-1.4870961E-1,6.7489296E-1,-1.2127902E-1,5.338618E-1,-1.7786852E-1,3.247327E-1,8.7061685E-1,6.922016E-1,-1.3836175E-1,-1.7985477E-1,-5.702534E-2],"categories":[],"categories_nodes":[],"categories_segments":[],"categories_sizes":[],"default_left":[0,1,0,0,0,0,0,0,0,0,0,0,1,0,0,0,1,0,0,1,0,1,0,0,1,0,0,0,0,0,0,0,0,0,1,0,0,0,0,0,0,0,0,0,0,0,0,0,0,0,0,0,0,0,0,0,0],"id":1,"left_children":[1,3,5,7,9,-1,11,13,15,17,-1,19,21,-1,-1,23,25,-1,27,29,31,33,35,37,39,41,43,-1,-1,45,47,49,51,53,55,-1,-1,-1,-1,-1,-1,-1,-1,-1,-1,-1,-1,-1,-1,-1,-1,-1,-1,-1,-1,-1,-1],"loss_changes":[1.7093264E5,4.8395625E3,1.9855645E3,2.5311875E3,3.1284561E1,0E0,9.1489844E2,1.1879524E1,1.8232969E3,5.004837E0,0E0,6.005964E2,2.0670117E2,0E0,0E0,2.352524E3,7.2125E2,0E0,8.9250183E-1,6.448091E1,6.066816E2,4.513867E1,1.9474503E1,4.543794E2,2.8887082E2,1.4807812E2,1.605383E3,0E0,0E0,6.7265236E1,1.3968914E1,2.2547476E1,5.8017212E1,6.3868835E1,3.7304688E-1,0E0,0E0,0E0,0E0,0E0,0E0,0E0,0E0,0E0,0E0,0E0,0E0,0E0,0E0,0E0,0E0,0E0,0E0,0E0,0E0,0E0,0E0],"parents":[2147483647,0,0,1,1,2,2,3,3,4,4,6,6,7,7,8,8,9,9,11,11,12,12,15,15,16,16,18,18,19,19,20,20,21,21,22,22,23,23,24,24,25,25,26,26,29,29,30,30,31,31,32,32,33,33,34,34],"right_children":[2,4,6,8,10,-1,12,14,16,18,-1,20,22,-1,-1,24,26,-1,28,30,32,34,36,38,40,42,44,-1,-1,46,48,50,52,54,56,-1,-1,-1,-1,-1,-1,-1,-1,-1,-1,-1,-1,-1,-1,-1,-1,-1,-1,-1,-1,-1,-1],"split_conditions":[3.75E2,5.4819244E-1,2.00001E0,5.3229046E-1,1.999E3,8.9368284E-1,3E2,1.968E3,2.00001E0,1.894E3,6.7325366E-1,2.00001E0,1E0,5.122391E-1,-1.7919596E-1,1.962E3,5.8837104E-1,2.1015432E-1,-1.981E3,1E0,2.2E1,7E2,1.199E3,1E0,4.8E1,2.00001E0,3.3E1,3.0998996E-2,-1.7960373E-1,1.875E3,1.133E3,1.918E3,4E2,1.884E3,1E0,8.525636E-1,-1.16214804E-1,8.4945E-1,1.9776337E-1,-6.747088E-2,8.588101E-1,-1.1525292E-1,8.968916E-1,-1.7331646E-1,8.971351E-1,7.759521E-1,-1.4870961E-1,6.7489296E-1,-1.2127902E-1,5.338618E-1,-1.7786852E-1,3.247327E-1,8.7061685E-1,6.922016E-1,-1.3836175E-1,-1.7985477E-1,-5.702534E-2],"split_indices":[10,179,188,177,13,0,9,3,213,3,0,213,181,0,0,3,205,0,9,50,11,9,10,9,11,38,11,0,0,3,10,3,13,3,193,0,0,0,0,0,0,0,0,0,0,0,0,0,0,0,0,0,0,0,0,0,0],"split_type":[0,0,0,0,0,0,0,0,0,0,0,0,0,0,0,0,0,0,0,0,0,0,0,0,0,0,0,0,0,0,0,0,0,0,0,0,0,0,0,0,0,0,0,0,0,0,0,0,0,0,0,0,0,0,0,0,0],"sum_hessian":[1.07822234E5,1.8894488E4,8.892774E4,1.8459143E4,4.353457E2,1.5544733E2,8.87723E4,2.1806021E2,1.8241082E4,4.3236905E2,2.976651E0,5.750985E2,8.81972E4,1.322956E0,2.1673726E2,1.5998026E3,1.664128E4,2.2064314E0,4.301626E2,2.972204E2,2.7787814E2,8.817719E4,2.0011967E1,1.1172968E3,4.8250598E2,1.6065123E4,5.761555E2,1.5449533E0,4.2861765E2,2.8466992E2,1.2550475E1,8.5819595E1,1.9205856E2,2.093125E3,8.608406E4,1.8190645E1,1.8213215E0,1.0100872E3,1.07209496E2,4.510275E2,3.147846E1,1.2803621E1,1.6052319E4,1.855528E2,3.9060275E2,6.284041E0,2.7838586E2,1.048593E1,2.0645447E0,3.253019E0,8.2566574E1,2.1283213E1,1.7077534E2,7.3927684E0,2.0857322E3,8.6080695E4,3.3662748E0],"tree_param":{"num_deleted":"0","num_feature":"214","num_nodes":"57","size_leaf_vector":"1"}},{"base_weights":[7.35637E-5,2.8204935E0,-2.1115662E-1,-5.867719E-1,8.9991856E-1,2.9817152E0,-3.5256445E-1,-1.7951539E-1,4.934613E-1,2.996253E0,-1.7009923E-1,-4.0373236E-1,2.002166E0,-1.121418E-1,8.992972E-1,-7.6970006E-3,-5.996282E-1,2.992572E0,-1.796764E-1,-3.374082E-1,2.9966347E0,-1.7996132E-1,-5.310098E-1,1.6112064E-1,8.98385E-1,7.566777E-1,-1.1138947E-1,8.9981735E-1,-1.2634629E-1,3.5315034E-1,-1.733676E-1],"categories":[],"categories_nodes":[],"categories_segments":[],"categories_sizes":[],"default_left":[0,0,0,1,0,0,1,0,0,0,0,0,0,0,0,0,1,0,0,0,0,0,0,0,0,0,0,0,0,0,0],"id":2,"left_children":[1,3,5,7,-1,9,11,-1,-1,13,-1,15,17,-1,-1,19,21,23,-1,25,27,-1,29,-1,-1,-1,-1,-1,-1,-1,-1],"loss_changes":[6.41984E4,4.5869766E3,4.5264133E4,1.0729904E1,0E0,2.2105469E2,1.156756E4,0E0,0E0,2.115625E1,0E0,7.2895273E3,5.261927E3,0E0,0E0,3.0803812E4,7.285156E-1,5.814453E0,0E0,2.7166655E3,3.0236328E1,0E0,1.9130737E1,0E0,0E0,0E0,0E0,0E0,0E0,0E0,0E0],"parents":[2147483647,0,0,1,1,2,2,3,3,5,5,6,6,9,9,11,11,12,12,15,15,16,16,17,17,19,19,20,20,22,22],"right_children":[2,4,6,8,-1,10,12,-1,-1,14,-1,16,18,-1,-1,20,22,24,-1,26,28,-1,30,-1,-1,-1,-1,-1,-1,-1,-1],"split_conditions":[3.164077E-1,-1E0,2.00001E0,4.4857574E-1,8.9991856E-1,1.7309E4,5.228057E-1,-1.7951539E-1,4.934613E-1,1.875E3,-1.7009923E-1,1.7309E4,4.7E1,-1.121418E-1,8.992972E-1,1.3504E4,6.510023E-1,1.89E3,-1.796764E-1,1E0,4.7E1,-1.7996132E-1,7.184367E-1,1.6112064E-1,8.98385E-1,7.566777E-1,-1.1138947E-1,8.9981735E-1,-1.2634629E-1,3.5315034E-1,-1.733676E-1],"split_indices":[205,10,179,174,0,5,205,0,0,3,0,5,11,0,0,5,61,3,0,103,11,0,86,0,0,0,0,0,0,0,0],"split_type":[0,0,0,0,0,0,0,0,0,0,0,0,0,0,0,0,0,0,0,0,0,0,0,0,0,0,0,0,0,0,0],"sum_hessian":[1.0775722E5,7.5071216E3,1.0025009E5,3.750537E2,7.132068E3,4.250786E3,9.599931E4,3.7384024E2,1.2134823E0,4.233598E3,1.7188057E1,9.395844E4,2.0408722E3,1.6526978E0,4.231946E3,3.1095291E4,6.2863145E4,1.4779633E3,5.629089E2,2.8021006E4,3.0742854E3,6.2633754E4,2.2939148E2,1.4488435E0,1.4765145E3,3.2732864E2,2.7693678E4,3.0719304E3,2.35504E0,5.4836264E0,2.2390785E2],"tree_param":{"num_deleted":"0","num_feature":"214","num_nodes":"31","size_leaf_vector":"1"}},{"base_weights":[8.803993E-5,1.0932759E0,-4.0811267E-1,1.5241385E0,-1.7996445E-1,1.2212765E0,-4.2775542E-1,2.0580204E0,-3.763634E-1,2.0914671E0,-4.5395502E-1,-4.5595536E-1,5.175041E-1,2.3249137E0,1.7344786E-1,-1.7995726E-1,8.9640653E-1,-1.7881113E-1,2.9671087E0,1.4626223E0,-5.6119543E-1,-4.6373168E-1,2.9208524E0,1.9523656E0,-5.851936E-1,2.5062478E0,5.7932895E-1,-2.5062522E-2,2.882068E0,-1.0104302E-1,2.976967E0,7.4861515E-1,-3.226194E-1,-5.748825E-1,4.114705E-1,-2.4341354E-1,-5.637202E-1,8.941944E-1,-1.3373227E-1,2.5287933E0,-7.503758E-2,8.1343114E-1,-5.917666E-1,-1.6924334E-1,7.706699E-1,3.210237E-1,-4.92885E-2,-3.411441E-2,7.233909E-1,-1.0722649E-2,8.941113E-1,8.9581114E-1,3.1822327E-1,-1.5000704E-1,9.179145E-2,-5.7801735E-2,-1.7936333E-1,-1.7998533E-1,4.053784E-1,-1.2009715E-1,-1.7900398E-1,8.8201994E-1,-1.7797963E-1,1.8152536E-1,-1.4759396E-1,-1.353714E-1,6.3002604E-1,3.2921484E-1,-1.7852323E-1],"categories":[],"categories_nodes":[],"categories_segments":[],"categories_sizes":[],"default_left":[0,0,0,0,0,0,1,1,0,0,0,1,0,0,1,0,0,0,0,1,1,0,0,0,0,0,0,1,0,0,1,0,0,0,0,0,0,0,0,0,0,0,0,0,0,0,0,0,0,0,0,0,0,0,0,0,0,0,0,0,0,0,0,0,0,0,0,0,0],"id":3,"left_children":[1,3,5,7,-1,9,11,13,15,17,19,21,23,25,27,-1,-1,-1,29,31,33,35,37,39,41,43,45,47,49,-1,51,-1,53,55,-1,57,59,-1,-1,61,63,65,67,-1,-1,-1,-1,-1,-1,-1,-1,-1,-1,-1,-1,-1,-1,-1,-1,-1,-1,-1,-1,-1,-1,-1,-1,-1,-1],"loss_changes":[4.8085555E4,2.1373777E4,2.5116855E3,2.3697273E4,0E0,1.3637446E3,2.066789E3,9.170336E3,3.8536511E3,1.4500664E3,6.66769E1,1.978166E3,3.5552837E3,5.053883E3,1.2168059E3,0E0,0E0,0E0,1.6127197E1,3.2619984E1,8.834633E0,1.6544541E3,3.6175537E1,1.1412178E3,1.2165405E1,2.7845234E3,5.4912866E2,4.5587418E2,4.4429688E1,0E0,4.8813477E0,0E0,9.5695966E-1,2.5454407E0,0E0,1.3332467E4,2.7798242E2,0E0,0E0,9.779155E2,6.1865387E1,1.1306614E1,7.730652E0,0E0,0E0,0E0,0E0,0E0,0E0,0E0,0E0,0E0,0E0,0E0,0E0,0E0,0E0,0E0,0E0,0E0,0E0,0E0,0E0,0E0,0E0,0E0,0E0,0E0,0E0],"parents":[2147483647,0,0,1,1,2,2,3,3,5,5,6,6,7,7,8,8,9,9,10,10,11,11,12,12,13,13,14,14,18,18,19,19,20,20,21,21,22,22,23,23,24,24,25,25,26,26,27,27,28,28,30,30,32,32,33,33,35,35,36,36,39,39,40,40,41,41,42,42],"right_children":[2,4,6,8,-1,10,12,14,16,18,20,22,24,26,28,-1,-1,-1,30,32,34,36,38,40,42,44,46,48,50,-1,52,-1,54,56,-1,58,60,-1,-1,62,64,66,68,-1,-1,-1,-1,-1,-1,-1,-1,-1,-1,-1,-1,-1,-1,-1,-1,-1,-1,-1,-1,-1,-1,-1,-1,-1,-1],"split_conditions":[1.3504E4,2.00001E0,1E0,4.7E1,-1.7996445E-1,2.8579E4,5.2852505E-1,2E2,5E1,1.7309E4,1.74E3,8.447524E-1,2.6011E4,1.9E3,4.936735E-1,-1.7995726E-1,8.9640653E-1,-1.7881113E-1,4E0,2E0,5E1,2.8579E4,4.3E1,1.904E3,2.8579E4,1E0,1.24E2,7.448434E-1,3.85E2,-1.0104302E-1,3.9572614E-1,7.4861515E-1,1.972E3,2.6E1,4.114705E-1,1.8435E4,2.7E1,8.941944E-1,-1.3373227E-1,2.7E1,1.976E3,1.6939E4,1.555E3,-1.6924334E-1,7.706699E-1,3.210237E-1,-4.92885E-2,-3.411441E-2,7.233909E-1,-1.0722649E-2,8.941113E-1,8.9581114E-1,3.1822327E-1,-1.5000704E-1,9.179145E-2,-5.7801735E-2,-1.7936333E-1,-1.7998533E-1,4.053784E-1,-1.2009715E-1,-1.7900398E-1,8.8201994E-1,-1.7797963E-1,1.8152536E-1,-1.4759396E-1,-1.353714E-1,6.3002604E-1,3.2921484E-1,-1.7852323E-1],"split_indices":[5,213,49,11,0,5,73,13,11,5,9,66,7,10,38,0,0,0,13,6,11,5,11,9,5,103,12,17,5,0,19,0,3,11,0,5,11,0,0,11,3,5,9,0,0,0,0,0,0,0,0,0,0,0,0,0,0,0,0,0,0,0,0,0,0,0,0,0,0],"split_type":[0,0,0,0,0,0,0,0,0,0,0,0,0,0,0,0,0,0,0,0,0,0,0,0,0,0,0,0,0,0,0,0,0,0,0,0,0,0,0,0,0,0,0,0,0,0,0,0,0,0,0,0,0,0,0,0,0,0,0,0,0,0,0,0,0,0,0,0,0],"sum_hessian":[1.0775513E5,2.9296238E4,7.84589E4,2.3353506E4,5.942733E3,9.338488E2,7.752505E4,1.823181E4,5.1216953E3,6.144351E2,3.1941373E2,7.527974E4,2.2453025E3,1.5969916E4,2.2618938E3,4.803428E3,3.1826724E2,1.5107562E2,4.6335947E2,1.6255753E1,3.03158E2,7.510765E4,1.7210028E2,9.7536255E2,1.2699401E3,1.4466661E4,1.503255E3,2.108366E3,1.5352798E2,1.2798078E0,4.6207968E2,1.0046228E1,6.2095237E0,3.0172385E2,1.4341245E0,2.344705E4,5.1660594E4,1.6920955E2,2.89073E0,7.592474E2,2.1611513E2,5.3661604E0,1.2645739E3,2.8913077E2,1.417753E4,9.0534155E2,5.979135E2,2.0352621E3,7.310388E1,5.0246105E0,1.4850337E2,4.5934717E2,2.7325063E0,5.002287E0,1.2072369E0,1.7654945E1,2.840689E2,1.916317E4,4.2838794E3,8.673784E3,4.2986812E4,6.7092395E2,8.832346E1,8.196363E1,1.3415149E2,3.033647E0,2.3325138E0,1.8273232E0,1.2627466E3],"tree_param":{"num_deleted":"0","num_feature":"214","num_nodes":"69","size_leaf_vector":"1"}},{"base_weights":[-3.1986038E-4,-3.1750488E-1,2.060611E0,2.9816668E0,-3.9764565E-1,2.458658E0,3.015175E-1,8.988117E-1,2.6440404E-2,-4.2876914E-1,2.620771E0,-4.7582746E-1,2.547757E0,-1.8041247E-1,1.4479439E0,-4.455526E-1,5.546228E-1,-5.445338E-1,-5.2885987E-2,-1.7675918E-1,2.819918E0,-5.4435456E-1,7.8270453E-1,-3.201999E-1,2.5930657E0,-5.7197875E-1,7.735386E-1,2.6439712E0,-5.8479196E-1,1.1853746E-2,-1.5927804E-1,-5.548007E-1,4.4830254E-1,-2.0171618E-1,1.716395E0,-1.6220592E-1,2.8558037E0,8.823269E-1,-5.9238267E-1,9.402142E-1,-4.0114358E-1,2.626199E0,-1.7846818E-1,7.5542814E-1,-5.9156424E-1,2.1603975E0,-4.0528214E-1,-2.3581234E-1,2.918601E0,9.950743E-2,-5.913489E-1,-1.6961749E-1,1.7526152E-2,-1.795631E-1,5.295685E-1,-7.6966524E-2,4.699513E-1,-1.5484947E-1,6.885823E-1,8.660884E-1,-7.066756E-2,6.1213017E-1,9.8701194E-2,-1.7858183E-1,-5.303913E-2,-1.4572603E-1,5.714812E-1,-1.6893603E-1,3.8108823E-3,1.06282964E-1,7.97656E-1,-1.7833215E-1,-7.314638E-2,1.0256332E-1,7.3468477E-1,-1.3281499E-1,6.656376E-1,6.793045E-1,-1.5409395E-1,8.830436E-1,4.139324E-1,1.1853746E-2,-1.7839366E-1],"categories":[],"categories_nodes":[],"categories_segments":[],"categories_sizes":[],"default_left":[1,0,0,1,1,0,1,0,0,1,0,0,0,0,1,0,0,1,1,0,0,0,0,0,0,0,0,0,0,0,0,1,1,1,0,0,1,0,0,0,0,0,0,0,0,0,1,0,1,0,0,0,0,0,0,0,0,0,0,0,0,0,0,0,0,0,0,0,0,0,0,0,0,0,0,0,0,0,0,0,0,0,0],"id":4,"left_children":[1,3,5,7,9,11,13,-1,15,17,19,21,23,25,27,29,-1,31,33,-1,35,37,-1,39,41,43,45,47,49,-1,-1,51,53,55,57,-1,59,61,63,65,67,69,-1,-1,71,73,75,77,79,-1,81,-1,-1,-1,-1,-1,-1,-1,-1,-1,-1,-1,-1,-1,-1,-1,-1,-1,-1,-1,-1,-1,-1,-1,-1,-1,-1,-1,-1,-1,-1,-1,-1],"loss_changes":[7.047878E4,2.4705396E4,1.0068234E4,9.403906E1,8.57073E3,3.067211E3,1.4669386E3,0E0,1.0915904E1,3.928871E3,5.968955E2,7.464713E1,1.4797344E3,6.988986E2,1.911937E3,4.402945E-1,0E0,7.0390234E2,5.5988857E3,0E0,1.0729834E2,2.3799042E1,0E0,1.852643E1,1.1850234E3,8.175632E1,8.91189E2,3.920796E2,1.9502411E0,0E0,0E0,4.4377148E2,9.758613E2,1.9021581E3,2.1333599E3,0E0,8.426709E1,6.6754913E0,2.9019165E-1,1.6104462E1,1.1259426E1,8.217422E2,0E0,0E0,1.1740417E0,1.3054114E2,2.9981144E1,3.1734385E1,1.3237549E1,0E0,6.269684E-1,0E0,0E0,0E0,0E0,0E0,0E0,0E0,0E0,0E0,0E0,0E0,0E0,0E0,0E0,0E0,0E0,0E0,0E0,0E0,0E0,0E0,0E0,0E0,0E0,0E0,0E0,0E0,0E0,0E0,0E0,0E0,0E0],"parents":[2147483647,0,0,1,1,2,2,3,3,4,4,5,5,6,6,8,8,9,9,10,10,11,11,12,12,13,13,14,14,15,15,17,17,18,18,20,20,21,21,23,23,24,24,25,25,26,26,27,27,28,28,31,31,32,32,33,33,34,34,36,36,37,37,38,38,39,39,40,40,41,41,44,44,45,45,46,46,47,47,48,48,50,50],"right_children":[2,4,6,8,10,12,14,-1,16,18,20,22,24,26,28,30,-1,32,34,-1,36,38,-1,40,42,44,46,48,50,-1,-1,52,54,56,58,-1,60,62,64,66,68,70,-1,-1,72,74,76,78,80,-1,82,-1,-1,-1,-1,-1,-1,-1,-1,-1,-1,-1,-1,-1,-1,-1,-1,-1,-1,-1,-1,-1,-1,-1,-1,-1,-1,-1,-1,-1,-1,-1,-1],"split_conditions":[1.92E3,9.062291E-1,3.3E1,2.8E1,4.3170217E-1,5.5579686E-1,4E1,8.988117E-1,1.923E3,1.84E3,1.833E3,3E1,6E0,1.992E3,4.7E1,2.9E1,5.546228E-1,1.925E3,3.353138E-1,-1.7675918E-1,4.8E2,2.6E1,7.8270453E-1,2.8E1,2.00001E0,1.5E1,2.005E3,1.7309E4,2.00001E0,1.1853746E-2,-1.5927804E-1,5.444276E-1,4.7E1,6.641382E-1,4.3E1,-1.6220592E-1,5.701467E-1,6.631621E-1,2.9E1,1.7309E4,1.975E3,2.83E2,-1.7846818E-1,7.5542814E-1,1.986E3,1.996E3,1.5E1,1.94E3,7.1148926E-1,9.950743E-2,3E0,-1.6961749E-1,1.7526152E-2,-1.795631E-1,5.295685E-1,-7.6966524E-2,4.699513E-1,-1.5484947E-1,6.885823E-1,8.660884E-1,-7.066756E-2,6.1213017E-1,9.8701194E-2,-1.7858183E-1,-5.303913E-2,-1.4572603E-1,5.714812E-1,-1.6893603E-1,3.8108823E-3,1.06282964E-1,7.97656E-1,-1.7833215E-1,-7.314638E-2,1.0256332E-1,7.3468477E-1,-1.3281499E-1,6.656376E-1,6.793045E-1,-1.5409395E-1,8.830436E-1,4.139324E-1,1.1853746E-2,-1.7839366E-1],"split_indices":[9,95,4,11,86,30,4,0,10,9,9,4,4,3,11,4,0,10,92,0,5,11,0,11,213,11,3,5,76,0,0,37,11,37,11,0,14,105,4,5,3,5,0,0,9,3,6,3,86,0,13,0,0,0,0,0,0,0,0,0,0,0,0,0,0,0,0,0,0,0,0,0,0,0,0,0,0,0,0,0,0,0,0],"split_type":[0,0,0,0,0,0,0,0,0,0,0,0,0,0,0,0,0,0,0,0,0,0,0,0,0,0,0,0,0,0,0,0,0,0,0,0,0,0,0,0,0,0,0,0,0,0,0,0,0,0,0,0,0,0,0,0,0,0,0,0,0,0,0,0,0,0,0,0,0,0,0,0,0,0,0,0,0,0,0,0,0,0,0],"sum_hessian":[1.0781376E5,9.343466E4,1.4379101E4,2.214954E3,9.12197E4,1.1725468E4,2.6536328E3,2.2042205E3,1.0733552E1,9.028957E4,9.301357E2,3.45398E2,1.138007E4,1.8688544E3,7.8477856E2,9.125471E0,1.6080805E0,6.9029414E4,2.1260156E4,5.422042E1,8.759152E2,3.386977E2,6.7003355E0,1.7689471E2,1.1203175E4,1.3252728E3,5.4358154E2,4.9388455E2,2.9089398E2,1.4461513E0,7.6793203E0,6.832332E4,7.0608813E2,1.9611355E4,1.648802E3,9.105892E0,8.668093E2,1.0464918E1,3.2823276E2,1.00340395E1,1.6686069E2,1.108811E4,1.1506496E2,7.543461E0,1.3177294E3,2.4937004E2,2.9421152E2,4.301093E1,4.5087363E2,1.7141647E0,2.891798E2,6.716342E4,1.159899E3,3.9368604E2,3.124021E2,1.902226E4,5.89094E2,3.395129E2,1.3092892E3,8.5822546E2,8.583875E0,2.514487E0,7.9504313E0,3.2553653E2,2.6962514E0,4.2494164E0,5.784623E0,1.1966427E2,4.7196415E1,1.5727916E2,1.0930831E4,1.306216E3,1.151341E1,3.4449028E1,2.14921E2,2.9089297E2,3.3185272E0,3.5865407E0,3.942439E1,4.4280222E2,8.071409E0,1.4461513E0,2.8773367E2],"tree_param":{"num_deleted":"0","num_feature":"214","num_nodes":"83","size_leaf_vector":"1"}},{"base_weights":[5.778616E-4,-4.6940547E-1,8.617239E-1,1.7856898E0,-4.9394783E-1,2.806503E-1,2.3026738E0,-2.6324017E-2,2.2944665E0,1.2178915E0,-5.0981414E-1,1.8920807E0,-1.3202463E-1,2.9113941E0,-2.4190792E-1,7.0552933E-1,-1.9541931E-1,2.7363735E-1,2.4854856E0,2.772585E0,-5.580904E-1,1.3169742E0,-5.2099794E-1,2.5861511E0,2.5299883E-1,2.9359238E0,-2.558426E-1,2.957026E0,1.0060142E0,2.9413438E0,-4.1923964E-1,-3.8321906E-1,1.1473157E0,-2.6217857E-1,8.059013E-1,2.7686305E0,1.0470315E0,2.9281118E0,-4.9466863E-1,-5.776711E-1,6.831357E-1,-1.3531324E-4,2.5260231E0,-5.3278446E-1,1.7660287E-1,2.8386798E0,1.6634455E0,-5.5315405E-1,1.3561522E0,8.997691E-1,-2.2580405E-1,-3.196843E-1,2.9738324E0,2.998275E0,2.4524765E0,3.0400681E-1,2.7571766E0,8.92707E-1,-9.305796E-2,2.6037772E0,-4.7523683E-1,-1.5196829E-1,5.6344725E-2,6.7777795E-1,4.293838E-2,4.0983388E-1,-1.3876462E-1,8.439682E-1,-1.5362948E-1,3.965121E-1,-1.6693258E-1,-9.7288385E-2,8.823085E-1,-1.6774032E-1,2.5993474E-2,-1.7553778E-1,9.251821E-2,5.590988E-1,-1.2742585E-1,-8.2894236E-2,6.8989164E-1,-1.3318539E-1,8.343907E-1,-1.6630328E-1,-5.839924E-2,7.572424E-1,-2.7123353E-2,-1.7443861E-1,8.763486E-1,-2.3480378E-2,6.94373E-1,-1.6985783E-1,6.499811E-1,6.1617863E-1,4.0679403E-2,-1.6811597E-1,4.3432787E-1,8.933056E-1,-1.09320395E-1,-1.1091144E-1,8.964498E-1,8.9980197E-1,-1.2629975E-1,1.8438548E-1,8.455803E-1,8.0988425E-1,-3.6735218E-2,3.3910453E-1,8.4874666E-1,8.7382126E-1,-1.3724174E-1,-1.5855575E-1,4.4613704E-2],"categories":[],"categories_nodes":[],"categories_segments":[],"categories_sizes":[],"default_left":[0,0,0,0,0,1,1,0,0,0,0,1,0,1,0,0,1,0,0,0,1,1,1,0,0,0,1,0,0,0,0,0,0,0,0,0,0,0,0,1,0,0,0,1,0,0,0,0,0,0,0,0,0,1,0,0,0,0,0,0,1,0,0,0,0,0,0,0,0,0,0,0,0,0,0,0,0,0,0,0,0,0,0,0,0,0,0,0,0,0,0,0,0,0,0,0,0,0,0,0,0,0,0,0,0,0,0,0,0,0,0,0,0],"id":5,"left_children":[1,3,5,7,9,11,13,15,17,19,21,23,25,27,29,-1,31,33,35,37,39,41,43,45,47,49,51,53,55,57,59,61,63,65,-1,67,69,71,73,75,77,79,81,83,85,87,89,91,93,-1,95,97,99,101,103,105,107,-1,-1,109,111,-1,-1,-1,-1,-1,-1,-1,-1,-1,-1,-1,-1,-1,-1,-1,-1,-1,-1,-1,-1,-1,-1,-1,-1,-1,-1,-1,-1,-1,-1,-1,-1,-1,-1,-1,-1,-1,-1,-1,-1,-1,-1,-1,-1,-1,-1,-1,-1,-1,-1,-1,-1],"loss_changes":[4.3583457E4,3.8565547E3,3.1834344E4,6.917058E2,1.8724316E3,1.8019023E4,1.6924512E4,6.699428E1,2.2543774E2,1.7498448E3,1.3957637E3,6.284123E3,8.19548E3,7.636328E2,1.1923755E3,0E0,3.9625572E1,6.755572E1,2.1502637E2,1.7309766E2,7.5981674E0,6.6211383E2,5.5813477E2,8.9956055E2,1.4632378E3,1.6819873E2,4.2766016E3,1.7185156E2,2.5453423E2,1.3371948E1,3.3973825E2,9.75E0,2.1247116E1,1.4734786E1,0E0,6.676074E1,4.020173E1,1.4505615E1,6.55705E-1,2.111412E0,7.4111443E0,1.2766424E2,1.6559473E2,4.864297E2,7.0754346E2,8.608535E2,9.486404E2,3.4946686E1,5.913312E2,0E0,1.0531395E1,2.9995405E3,2.0373291E1,3.021875E1,4.3982617E2,1.5297305E2,3.7484741E0,0E0,0E0,3.5874557E1,6.537674E1,0E0,0E0,0E0,0E0,0E0,0E0,0E0,0E0,0E0,0E0,0E0,0E0,0E0,0E0,0E0,0E0,0E0,0E0,0E0,0E0,0E0,0E0,0E0,0E0,0E0,0E0,0E0,0E0,0E0,0E0,0E0,0E0,0E0,0E0,0E0,0E0,0E0,0E0,0E0,0E0,0E0,0E0,0E0,0E0,0E0,0E0,0E0,0E0,0E0,0E0,0E0,0E0],"parents":[2147483647,0,0,1,1,2,2,3,3,4,4,5,5,6,6,7,7,8,8,9,9,10,10,11,11,12,12,13,13,14,14,16,16,17,17,18,18,19,19,20,20,21,21,22,22,23,23,24,24,25,25,26,26,27,27,28,28,29,29,30,30,31,31,32,32,33,33,35,35,36,36,37,37,38,38,39,39,40,40,41,41,42,42,43,43,44,44,45,45,46,46,47,47,48,48,50,50,51,51,52,52,53,53,54,54,55,55,56,56,59,59,60,60],"right_children":[2,4,6,8,10,12,14,16,18,20,22,24,26,28,30,-1,32,34,36,38,40,42,44,46,48,50,52,54,56,58,60,62,64,66,-1,68,70,72,74,76,78,80,82,84,86,88,90,92,94,-1,96,98,100,102,104,106,108,-1,-1,110,112,-1,-1,-1,-1,-1,-1,-1,-1,-1,-1,-1,-1,-1,-1,-1,-1,-1,-1,-1,-1,-1,-1,-1,-1,-1,-1,-1,-1,-1,-1,-1,-1,-1,-1,-1,-1,-1,-1,-1,-1,-1,-1,-1,-1,-1,-1,-1,-1,-1,-1,-1,-1],"split_conditions":[2.76907E5,2.00001E0,3.6E1,4.9E1,2.7E1,1.3E1,4E1,1.585E3,1.902E3,1.942E3,7.448434E-1,1.911E3,2.00001E0,1.981E3,9.077538E-1,7.0552933E-1,3.2855892E-1,1.9E3,1.944E3,6.526E3,6.030361E-1,2.707772E-1,6.1728376E-1,1.975E3,2.00001E0,1.973E3,3.922478E-1,1.996E3,2.006E3,4.7E1,6.569925E-1,2.00001E0,1.96E3,9.9E1,8.059013E-1,3.9E1,3.9E1,2.00001E0,1.98E3,1.5E1,2.017E3,7.616408E-1,1.125E3,2.99E2,1.89E3,-1.2E2,1.976E3,1.2E1,1.992E3,8.997691E-1,2.008E3,2.00001E0,8.142006E-1,4.7E1,2.001E3,1.992E3,4E0,8.92707E-1,-9.305796E-2,1.887E3,9.9E1,-1.5196829E-1,5.6344725E-2,6.7777795E-1,4.293838E-2,4.0983388E-1,-1.3876462E-1,8.439682E-1,-1.5362948E-1,3.965121E-1,-1.6693258E-1,-9.7288385E-2,8.823085E-1,-1.6774032E-1,2.5993474E-2,-1.7553778E-1,9.251821E-2,5.590988E-1,-1.2742585E-1,-8.2894236E-2,6.8989164E-1,-1.3318539E-1,8.343907E-1,-1.6630328E-1,-5.839924E-2,7.572424E-1,-2.7123353E-2,-1.7443861E-1,8.763486E-1,-2.3480378E-2,6.94373E-1,-1.6985783E-1,6.499811E-1,6.1617863E-1,4.0679403E-2,-1.6811597E-1,4.3432787E-1,8.933056E-1,-1.09320395E-1,-1.1091144E-1,8.964498E-1,8.9980197E-1,-1.2629975E-1,1.8438548E-1,8.455803E-1,8.0988425E-1,-3.6735218E-2,3.3910453E-1,8.4874666E-1,8.7382126E-1,-1.3724174E-1,-1.5855575E-1,4.4613704E-2],"split_indices":[5,97,4,13,12,11,4,9,3,9,17,9,82,9,104,0,106,10,3,5,106,54,106,3,76,3,34,3,3,4,92,2,3,13,0,11,11,100,3,6,3,36,9,13,3,9,3,11,3,0,3,41,74,11,3,3,6,0,0,9,13,0,0,0,0,0,0,0,0,0,0,0,0,0,0,0,0,0,0,0,0,0,0,0,0,0,0,0,0,0,0,0,0,0,0,0,0,0,0,0,0,0,0,0,0,0,0,0,0,0,0,0,0],"split_type":[0,0,0,0,0,0,0,0,0,0,0,0,0,0,0,0,0,0,0,0,0,0,0,0,0,0,0,0,0,0,0,0,0,0,0,0,0,0,0,0,0,0,0,0,0,0,0,0,0,0,0,0,0,0,0,0,0,0,0,0,0,0,0,0,0,0,0,0,0,0,0,0,0,0,0,0,0,0,0,0,0,0,0,0,0,0,0,0,0,0,0,0,0,0,0,0,0,0,0,0,0,0,0,0,0,0,0,0,0,0,0,0,0],"sum_hessian":[1.0768479E5,6.9664695E4,3.8020098E4,7.492305E2,6.891546E4,2.7095025E4,1.0925071E4,1.6445834E2,5.8477216E2,6.321871E2,6.828328E4,5.5234067E3,2.1571617E4,8.815956E3,2.109116E3,1.0060705E1,1.5439764E2,5.0712044E1,5.340601E2,3.367954E2,2.9539166E2,4.147829E2,6.786849E4,3.8798877E3,1.6435192E3,8.359452E2,2.0735672E4,8.609223E3,2.0673322E2,1.1047163E2,1.9986444E3,1.3607965E2,1.8317993E1,4.2225807E1,8.486235E0,4.454526E2,8.860751E1,3.215909E2,1.5204472E1,2.913304E2,4.061234E0,1.989985E2,2.1578438E2,6.6741086E4,1.1274081E3,3.0445662E3,8.3532166E2,9.498757E2,6.9364343E2,8.195862E2,1.6359005E1,2.0334615E4,4.0105777E2,7.9540054E3,6.552172E2,1.484115E2,5.8321716E1,1.09400856E2,1.0707712E0,3.552135E1,1.963123E3,1.1200073E2,2.4078918E1,8.099511E0,1.0218481E1,3.989283E0,3.8236526E1,4.3961914E2,5.8334637E0,7.579887E1,1.2808646E1,1.1767286E0,3.2041418E2,1.3721012E1,1.48346E0,2.892366E2,2.0938222E0,1.6359006E0,2.4253333E0,1.7844855E2,2.054995E1,1.7020863E1,1.9876352E2,6.2739926E4,4.0011626E3,1.14274506E2,1.0131336E3,7.155305E1,2.9730132E3,2.2754376E2,6.077779E2,9.461317E2,3.7439816E0,4.4090207E2,2.5274136E2,1.4187718E1,2.171286E0,2.7119885E2,2.0063416E4,1.6061568E0,3.994516E2,7.951652E3,2.3534572E0,1.0928931E2,5.459279E2,2.1621773E1,1.2678973E2,3.1788523E0,5.5142864E1,3.2309036E1,3.2123137E0,1.808812E3,1.54311E2],"tree_param":{"num_deleted":"0","num_feature":"214","num_nodes":"113","size_leaf_vector":"1"}},{"base_weights":[-3.6892064E-3,-1.724676E-1,6.8768615E-1,-5.6645805E-1,1.0456729E0,2.368809E-1,-5.69092E-1,-1.0571066E-1,1.1899046E0,-1.6410877E-1,4.2220262E-1,3.541097E-1,-5.698678E-1,-3.2754827E-1,1.3505167E0,1.2565967E0,7.085643E-2,3.631215E-1,-5.7027644E-1,1.4131266E0,-4.1944787E-1,-1.6198722E-1,1.3882827E0,8.3325344E-1,1.35309E0,-1.7603768E-1,8.721974E-1,3.412282E-1,-1.7120054E-1,4.4826445E-1,-1.5266696E-1,7.031164E-1,-1.3189423E-1,4.1845834E-1,-1.1231443E-1,3.1865332E-1,5.6326173E-2,4.0853098E-1,-1.0393845E-1,-6.753583E-2,5.838447E-1,-3.8949538E-2,3.7839928E-1],"categories":[],"categories_nodes":[],"categories_segments":[],"categories_sizes":[],"default_left":[1,0,0,0,0,0,0,0,1,0,0,0,0,1,0,0,0,0,0,0,0,0,1,1,1,1,0,0,0,0,0,0,0,0,0,0,0,0,0,0,0,0,0],"id":6,"left_children":[1,-1,3,5,7,9,11,13,15,-1,-1,-1,17,19,21,23,25,-1,27,29,31,-1,33,35,37,39,41,-1,-1,-1,-1,-1,-1,-1,-1,-1,-1,-1,-1,-1,-1,-1,-1],"loss_changes":[4.0613633E4,0E0,2.088942E4,2.1997314E1,6.010922E3,3.2399166E1,1.4650391E1,1.3024066E3,2.4005117E3,0E0,0E0,0E0,8.178955E0,5.60204E2,3.8802612E1,1.2389336E3,3.5830234E2,0E0,7.540283E0,2.8137543E1,1.865376E2,0E0,6.584778E0,8.32855E2,3.6514453E2,1.4466917E2,1.6648099E2,0E0,0E0,0E0,0E0,0E0,0E0,0E0,0E0,0E0,0E0,0E0,0E0,0E0,0E0,0E0,0E0],"parents":[2147483647,0,0,2,2,3,3,4,4,5,5,6,6,7,7,8,8,12,12,13,13,14,14,15,15,16,16,18,18,19,19,20,20,22,22,23,23,24,24,25,25,26,26],"right_children":[2,-1,4,6,8,10,12,14,16,-1,-1,-1,18,20,22,24,26,-1,28,30,32,-1,34,36,38,40,42,-1,-1,-1,-1,-1,-1,-1,-1,-1,-1,-1,-1,-1,-1,-1,-1],"split_conditions":[4.7E1,-1.724676E-1,1.525E3,3E0,9E1,2.016E3,2.00001E0,2.9E1,3.353138E-1,-1.6410877E-1,4.2220262E-1,3.541097E-1,8.025653E-1,7E0,2.00001E0,2.8579E4,2.00001E0,3.631215E-1,2.00001E0,4.8E1,1.2E1,-1.6198722E-1,1E0,1.868E3,7.199674E-1,1E2,2.8579E4,3.412282E-1,-1.7120054E-1,4.4826445E-1,-1.5266696E-1,7.031164E-1,-1.3189423E-1,4.1845834E-1,-1.1231443E-1,3.1865332E-1,5.6326173E-2,4.0853098E-1,-1.0393845E-1,-6.753583E-2,5.838447E-1,-3.8949538E-2,3.7839928E-1],"split_indices":[11,0,9,5,12,3,100,4,92,0,0,0,111,6,76,5,162,0,66,11,4,0,71,10,67,13,5,0,0,0,0,0,0,0,0,0,0,0,0,0,0,0,0],"split_type":[0,0,0,0,0,0,0,0,0,0,0,0,0,0,0,0,0,0,0,0,0,0,0,0,0,0,0,0,0,0,0,0,0,0,0,0,0,0,0,0,0,0,0],"sum_hessian":[1.0283932E5,5.631389E4,4.652543E4,1.0331219E4,3.619421E4,3.3471996E1,1.0297747E4,4.0292754E3,3.2164934E4,2.036517E1,1.3106827E1,3.8906972E0,1.0293856E4,3.497284E3,5.3199133E2,3.0355697E4,1.8092368E3,1.6825944E0,1.0292174E4,1.7466022E2,3.3226238E3,1.0158968E1,5.218324E2,5.6364893E3,2.4719209E4,1.3836981E3,4.2553873E2,1.6964386E0,1.0290477E4,1.6780333E2,6.8568945E0,2.3278254E1,3.2993455E3,5.201E2,1.732415E0,4.1603794E3,1.4761097E3,2.4593803E4,1.2540561E2,1.3532931E3,3.0404934E1,1.19217285E2,3.0632144E2],"tree_param":{"num_deleted":"0","num_feature":"214","num_nodes":"43","size_leaf_vector":"1"}},{"base_weights":[-7.5653517E-3,1.2739371E0,-5.630475E-1,1.2944406E0,-5.283556E-1,4.0897587E-1,-5.6881857E-1,-5.417123E-1,1.3047849E0,-5.5662817E-1,3.9084807E-1,-5.6964684E-1,1.255163E0,3.5487643E-1,-1.7036307E-1,8.677288E-1,1.3439461E0,3.712818E-1,-5.666769E-1,-4.0716648E-1,-5.7390594E-1,4.083382E-1,-1.1459288E-1,1.1920713E0,-1.3821048E-1,1.3467932E0,-5.169043E-1,-1.7102122E-1,5.2546706E-2,-5.1912487E-1,-1.5938368E-2,-3.000358E-1,-1.7218186E-1,4.0496016E-1,3.6000542E-2,-1.0468866E-1,3.8285944E-1,4.0662563E-1,3.158765E-1,2.3430824E-1,-1.7129472E-1,3.3499354E-1,-1.5914644E-1,-6.629576E-2,8.5169476E-1,2.3591392E-1,-1.5470627E-1],"categories":[],"categories_nodes":[],"categories_segments":[],"categories_sizes":[],"default_left":[0,1,0,0,0,0,1,0,0,0,0,1,0,0,0,0,1,0,0,0,0,0,0,0,0,1,0,0,0,0,0,1,0,0,0,0,0,0,0,0,0,0,0,0,0,0,0],"id":7,"left_children":[1,3,5,7,9,-1,11,13,15,17,-1,19,21,-1,-1,23,25,-1,27,29,31,-1,-1,33,35,37,39,-1,-1,41,43,45,-1,-1,-1,-1,-1,-1,-1,-1,-1,-1,-1,-1,-1,-1,-1],"loss_changes":[7.317812E4,1.1493906E3,7.980078E2,5.844883E2,1.8864716E1,0E0,1.0873242E2,8.473335E0,5.2195703E2,6.935005E0,0E0,4.9226562E1,6.204033E0,0E0,0E0,8.2113367E2,1.4930078E2,0E0,9.6720886E-1,8.0104706E1,4.6679688E-1,0E0,0E0,3.2173828E2,1.8358875E2,6.956641E1,3.5042067E0,0E0,0E0,2.7024628E1,2.3945898E2,2.8937159E0,0E0,0E0,0E0,0E0,0E0,0E0,0E0,0E0,0E0,0E0,0E0,0E0,0E0,0E0,0E0],"parents":[2147483647,0,0,1,1,2,2,3,3,4,4,6,6,7,7,8,8,9,9,11,11,12,12,15,15,16,16,18,18,19,19,20,20,23,23,24,24,25,25,26,26,29,29,30,30,31,31],"right_children":[2,4,6,8,10,-1,12,14,16,18,-1,20,22,-1,-1,24,26,-1,28,30,32,-1,-1,34,36,38,40,-1,-1,42,44,46,-1,-1,-1,-1,-1,-1,-1,-1,-1,-1,-1,-1,-1,-1,-1],"split_conditions":[3E2,5.4819244E-1,2.00001E0,5.3229046E-1,1.999E3,4.0897587E-1,1E0,1.968E3,2.00001E0,1.875E3,3.9084807E-1,7E2,1.199E3,3.5487643E-1,-1.7036307E-1,1.962E3,6.690223E-1,3.712818E-1,3.3E1,2.00001E0,2.00001E0,4.083382E-1,-1.1459288E-1,1E0,2.01E3,6.1415654E-1,1.931E3,-1.7102122E-1,5.2546706E-2,1.884E3,3.3E1,4.9E1,-1.7218186E-1,4.0496016E-1,3.6000542E-2,-1.0468866E-1,3.8285944E-1,4.0662563E-1,3.158765E-1,2.3430824E-1,-1.7129472E-1,3.3499354E-1,-1.5914644E-1,-6.629576E-2,8.5169476E-1,2.3591392E-1,-1.5470627E-1],"split_indices":[9,179,188,177,13,0,181,3,213,3,0,9,10,0,0,3,38,0,11,213,193,0,0,9,3,205,3,0,0,3,11,13,0,0,0,0,0,0,0,0,0,0,0,0,0,0,0],"split_type":[0,0,0,0,0,0,0,0,0,0,0,0,0,0,0,0,0,0,0,0,0,0,0,0,0,0,0,0,0,0,0,0,0,0,0,0,0,0,0,0,0,0,0,0,0,0,0],"sum_hessian":[1.0279766E5,3.1084389E4,7.1713266E4,3.0735018E4,3.493711E2,2.1350386E2,7.1499766E4,1.71891E2,3.0563127E4,3.4474442E2,4.626667E0,7.1468E4,3.1765593E1,1.9080989E0,1.6998291E2,2.5152344E3,2.8047893E4,1.2396514E0,3.4350476E2,1.8280101E3,6.9639984E4,2.999289E1,1.7727025E0,1.9018429E3,6.133916E2,2.800532E4,4.257122E1,3.4217087E2,1.3338804E0,1.421026E3,4.069842E2,9.620247E0,6.963037E4,1.6576044E3,2.4423856E2,5.345022E2,7.888937E1,2.7203254E4,8.020673E2,1.1650974E0,4.140612E1,9.132395E0,1.4118936E3,3.8057306E2,2.6411108E1,1.1550055E0,8.465241E0],"tree_param":{"num_deleted":"0","num_feature":"214","num_nodes":"47","size_leaf_vector":"1"}},{"base_weights":[-2.4715848E-3,5.708801E-1,-5.7372475E-1,-1.6591682E-1,1.3613138E0,2.7582902E-1,-5.7380146E-1,-3.8792408E-1,6.146553E-1,1.3614681E0,-1.1472861E-1,-1.7222553E-1,-4.972366E-1,1.3294148E0,-4.1744712E-1,1.1255376E0,-5.353753E-1,4.074981E-1,1.4481807E0,-1.7181927E-1,5.6516635E-1,-1.7008483E-1,4.062657E-1,1.3158176E0,-4.428515E-1,-5.3776383E-1,1.3510962E0,1.183304E-2,-5.6966114E-1,1.5084133E0,4.060493E-1,-1.5578225E-1,1.6997854E0,-1.7220215E-1,4.6983334E-1,-1.4423892E-1,8.8816874E-2,-1.7303193E-1,4.7068927E-1,4.574856E-1,-1.6440466E-1,-4.5059543E-2,7.9440045E-1,-1.716241E-1,2.4855044E-1,4.038213E-1,4.8524103E-1,-8.840791E-2,6.345978E-1],"categories":[],"categories_nodes":[],"categories_segments":[],"categories_sizes":[],"default_left":[0,0,0,0,0,0,1,0,0,1,0,0,0,0,0,0,0,0,0,0,0,0,0,0,0,1,0,0,1,0,0,0,0,0,0,0,0,0,0,0,0,0,0,0,0,0,0,0,0],"id":8,"left_children":[1,3,5,7,9,-1,11,13,15,17,-1,-1,19,21,23,25,27,-1,29,-1,31,-1,-1,33,35,37,39,41,43,45,-1,-1,47,-1,-1,-1,-1,-1,-1,-1,-1,-1,-1,-1,-1,-1,-1,-1,-1],"loss_changes":[3.3588484E4,2.9807826E4,6.408203E0,4.590839E3,7.1601562E0,0E0,8.3203125E-1,1.0462705E3,3.4472473E3,4.7578125E0,0E0,0E0,1.6131584E1,1.7175232E1,8.934429E2,1.5247568E3,3.387323E1,0E0,2.7945557E0,0E0,1.759126E1,0E0,0E0,1.3956784E2,5.6048096E2,4.0829315E1,1.1819961E3,4.6277847E1,6.2196045E0,6.8442383E0,0E0,0E0,6.3173313E0,0E0,0E0,0E0,0E0,0E0,0E0,0E0,0E0,0E0,0E0,0E0,0E0,0E0,0E0,0E0,0E0],"parents":[2147483647,0,0,1,1,2,2,3,3,4,4,6,6,7,7,8,8,9,9,12,12,13,13,14,14,15,15,16,16,18,18,20,20,23,23,24,24,25,25,26,26,27,27,28,28,29,29,32,32],"right_children":[2,4,6,8,10,-1,12,14,16,18,-1,-1,20,22,24,26,28,-1,30,-1,32,-1,-1,34,36,38,40,42,44,46,-1,-1,48,-1,-1,-1,-1,-1,-1,-1,-1,-1,-1,-1,-1,-1,-1,-1,-1],"split_conditions":[1.7309E4,1.3504E4,4.65451E-1,1.984E3,4.7E1,2.7582902E-1,6.510023E-1,2.00001E0,3.3E1,1.92E3,-1.1472861E-1,-1.7222553E-1,3E1,1.89E3,5.254557E-1,1.2E1,4.2E1,4.074981E-1,2.00001E0,-1.7181927E-1,6.00001E0,-1.7008483E-1,4.062657E-1,2.6E1,1.898E3,4.1357312E-1,7.19E2,3.000001E1,8.28274E-1,7.014852E-1,4.060493E-1,-1.5578225E-1,1.978E3,-1.7220215E-1,4.6983334E-1,-1.4423892E-1,8.8816874E-2,-1.7303193E-1,4.7068927E-1,4.574856E-1,-1.6440466E-1,-4.5059543E-2,7.9440045E-1,-1.716241E-1,2.4855044E-1,4.038213E-1,4.8524103E-1,-8.840791E-2,6.345978E-1],"split_indices":[5,5,174,3,11,0,61,179,11,9,0,0,4,3,61,6,11,0,213,0,8,0,0,11,9,76,5,6,99,30,0,0,9,0,0,0,0,0,0,0,0,0,0,0,0,0,0,0,0],"split_type":[0,0,0,0,0,0,0,0,0,0,0,0,0,0,0,0,0,0,0,0,0,0,0,0,0,0,0,0,0,0,0,0,0,0,0,0,0,0,0,0,0,0,0,0,0,0,0,0,0],"sum_hessian":[1.0254919E5,5.1180586E4,5.1368598E4,2.6489441E4,2.4691145E4,2.0226288E0,5.136658E4,2.0624115E4,5.865327E3,2.468918E4,1.9638973E0,5.1170484E4,1.9609273E2,3.478161E2,2.0276299E4,4.0612185E3,1.8041085E3,2.3842164E4,8.470152E2,1.835132E2,1.2579522E1,4.208444E0,3.4360767E2,2.9216202E2,1.9984137E4,4.8480573E2,3.5764128E3,1.0641179E2,1.6976968E3,5.0856213E2,3.384531E2,6.7092876E0,5.8702345E0,3.4018005E1,2.58144E2,1.9008357E4,9.757802E2,4.7670502E2,8.100682E0,3.2766465E3,2.997664E2,1.0113837E2,5.2734237E0,1.6953542E3,2.3425422E0,2.097178E2,2.9884433E2,1.0623022E0,4.8079324E0],"tree_param":{"num_deleted":"0","num_feature":"214","num_nodes":"49","size_leaf_vector":"1"}},{"base_weights":[3.3347667E-3,6.760106E-1,-3.6245722E-1,-5.011279E-1,8.820263E-1,-1.1662349E-1,-4.8293716E-1,9.5769554E-1,-5.465598E-1,1.0787493E0,-3.3469212E-1,-1.7142189E-1,9.1703963E-1,-5.297757E-1,3.6153498E-1,1.564376E0,-1.6739625E-1,4.6780625E-1,-5.525338E-1,1.1371951E0,-1.7220417E-1,-1.726179E-1,4.121689E-1,1.7127056E0,-4.7519532E-1,-3.5046992E-1,-5.6922585E-1,1.0512807E0,-5.6303793E-1,-1.4887519E-1,1.6057707E0,-5.548788E-1,8.4080845E-1,1.2597896E0,5.8216596E-1,4.0693372E-1,1.7859329E0,-1.9065665E-1,1.7628213E0,-3.985769E-1,1.4091305E0,-5.7042414E-1,1.0677996E0,1.2305627E0,-1.6376321E-1,3.0071437E-1,-5.6704986E-1,-1.2679748E-1,4.9267918E-1,-1.6725679E-1,1.816419E-1,-1.4382035E-1,6.38498E-1,3.9312604E-1,-8.679356E-3,3.397811E-1,2.550615E-2,5.420636E-1,8.699706E-2,4.0048677E-1,5.685273E-1,-1.26657E-1,6.504512E-1,8.111958E-1,-1.5135288E-1,1.4004322E-3,-1.7134023E-1,8.3922845E-1,-1.6077045E-1,4.0647236E-1,-1.7028245E-1,9.0403214E-2,-1.4409068E-1,-1.7053133E-1,4.801148E-2],"categories":[],"categories_nodes":[],"categories_segments":[],"categories_sizes":[],"default_left":[0,1,0,0,0,0,1,0,0,0,0,0,0,0,0,0,0,0,1,0,0,0,0,0,0,0,1,0,0,0,0,1,1,1,1,0,1,0,0,1,0,0,0,0,0,0,1,0,0,0,0,0,0,0,0,0,0,0,0,0,0,0,0,0,0,0,0,0,0,0,0,0,0,0,0],"id":9,"left_children":[1,3,5,7,9,11,13,15,17,19,21,-1,23,25,27,29,-1,-1,31,33,-1,-1,-1,35,37,39,41,43,45,-1,47,49,51,53,55,-1,57,-1,59,61,63,65,67,69,71,-1,73,-1,-1,-1,-1,-1,-1,-1,-1,-1,-1,-1,-1,-1,-1,-1,-1,-1,-1,-1,-1,-1,-1,-1,-1,-1,-1,-1,-1],"loss_changes":[2.529656E4,8.782383E3,1.9723223E3,3.5804932E2,7.3771934E3,1.0297393E4,1.7678906E3,1.5102063E2,6.6685425E1,2.5633906E3,1.7651792E3,0E0,7.4149624E3,2.9931836E2,1.4986678E3,1.0766113E1,0E0,0E0,1.7515625E1,1.7428438E3,0E0,0E0,0E0,1.0868945E2,8.7475555E2,6.471661E2,6.86875E1,2.9335608E2,6.876068E0,0E0,9.192657E0,1.6320435E1,1.6598354E1,1.3694492E3,1.2690219E3,0E0,1.10078125E2,0E0,6.6965027E0,4.5161182E2,5.0561752E2,1.4161133E1,7.2878296E1,2.630089E2,2.5750051E1,0E0,1.1025391E0,0E0,0E0,0E0,0E0,0E0,0E0,0E0,0E0,0E0,0E0,0E0,0E0,0E0,0E0,0E0,0E0,0E0,0E0,0E0,0E0,0E0,0E0,0E0,0E0,0E0,0E0,0E0,0E0],"parents":[2147483647,0,0,1,1,2,2,3,3,4,4,5,5,6,6,7,7,8,8,9,9,10,10,12,12,13,13,14,14,15,15,18,18,19,19,23,23,24,24,25,25,26,26,27,27,28,28,30,30,31,31,32,32,33,33,34,34,36,36,38,38,39,39,40,40,41,41,42,42,43,43,44,44,46,46],"right_children":[2,4,6,8,10,12,14,16,18,20,22,-1,24,26,28,30,-1,-1,32,34,-1,-1,-1,36,38,40,42,44,46,-1,48,50,52,54,56,-1,58,-1,60,62,64,66,68,70,72,-1,74,-1,-1,-1,-1,-1,-1,-1,-1,-1,-1,-1,-1,-1,-1,-1,-1,-1,-1,-1,-1,-1,-1,-1,-1,-1,-1,-1,-1],"split_conditions":[1.3504E4,3E2,2.8579E4,7.569387E-1,4.7E1,1.8435E4,6.1326176E-1,2.00001E0,7.8560287E-1,2.00001E0,5E1,-1.7142189E-1,4.7E1,2.7E1,2.6011E4,2.2E1,-1.6739625E-1,4.6780625E-1,6.226433E-1,1.977E3,-1.7220417E-1,-1.726179E-1,4.121689E-1,1E0,4.8E1,2.6E1,7.608324E-1,1.91E3,1.555E3,-1.4887519E-1,5.419495E-1,6.920584E-1,2E2,3.5756406E-1,3.2E1,4.0693372E-1,4.3189853E-1,-1.9065665E-1,7.9045135E-1,1E0,1.901E3,5.944089E-1,1.909E3,2.7E1,1.976E3,3.0071437E-1,1E0,-1.2679748E-1,4.9267918E-1,-1.6725679E-1,1.816419E-1,-1.4382035E-1,6.38498E-1,3.9312604E-1,-8.679356E-3,3.397811E-1,2.550615E-2,5.420636E-1,8.699706E-2,4.0048677E-1,5.685273E-1,-1.26657E-1,6.504512E-1,8.111958E-1,-1.5135288E-1,1.4004322E-3,-1.7134023E-1,8.3922845E-1,-1.6077045E-1,4.0647236E-1,-1.7028245E-1,9.0403214E-2,-1.4409068E-1,-1.7053133E-1,4.801148E-2],"split_indices":[5,9,5,17,11,5,73,213,39,213,11,0,11,11,7,11,0,0,106,3,0,0,0,49,11,11,99,9,9,0,24,38,9,97,13,0,97,0,49,65,9,93,3,11,3,0,141,0,0,0,0,0,0,0,0,0,0,0,0,0,0,0,0,0,0,0,0,0,0,0,0,0,0,0,0],"split_type":[0,0,0,0,0,0,0,0,0,0,0,0,0,0,0,0,0,0,0,0,0,0,0,0,0,0,0,0,0,0,0,0,0,0,0,0,0,0,0,0,0,0,0,0,0,0,0,0,0,0,0,0,0,0,0,0,0,0,0,0,0,0,0,0,0,0,0,0,0,0,0,0,0,0,0],"sum_hessian":[1.0280472E5,3.621184E4,6.6592875E4,5.3934067E3,3.0818434E4,2.1902934E4,4.4689945E4,1.6228656E2,5.23112E3,2.6529217E4,4.2892163E3,1.5210979E4,6.691956E3,4.2341832E4,2.3481116E3,1.1587379E2,4.6412773E1,1.4061995E1,5.217058E3,2.5623422E4,9.057951E2,3.7601597E3,5.290569E2,4.2581704E3,2.433786E3,7.6376523E3,3.470418E4,1.3447615E3,1.00335E3,2.065494E0,1.138083E2,5.2088936E3,8.1646595E0,2.0986637E4,4.6367837E3,7.293447E2,3.5288257E3,2.271758E3,1.6202791E2,7.435151E3,2.0250133E2,3.4679445E4,2.4733274E1,1.1718414E3,1.7292007E2,1.9287275E0,1.00142126E3,1.8243126E0,1.11983986E2,5.1975703E3,1.132292E1,4.3410454E0,3.823614E0,2.019328E4,7.933582E2,2.199845E3,2.4369387E3,3.4798938E3,4.89319E1,4.0880432E1,1.2114747E2,7.3682017E3,6.694913E1,1.2053135E2,8.196998E1,4.27532E1,3.4636695E4,1.1541328E1,1.3191946E1,1.0962793E3,7.55622E1,7.0045944E1,1.0287413E2,9.997312E2,1.6900725E0],"tree_param":{"num_deleted":"0","num_feature":"214","num_nodes":"75","size_leaf_vector":"1"}},{"base_weights":[6.61078E-3,-5.01341E-1,6.500093E-1,-5.1655155E-1,1.3517144E-1,3.97047E-2,1.0111977E0,-5.262501E-1,2.4525228E-1,-1.7807682E-1,1.320666E0,-1.10067494E-1,1.2095306E0,6.536689E-1,1.285479E0,-5.2951515E-1,1.5125986E0,-4.4045326E-1,1.1161401E0,-5.276505E-1,1.6389558E0,-2.3255947E-1,1.0741874E0,1.3898382E0,-5.7879233E-1,-5.8943903E-1,9.467169E-1,1.4014038E0,6.3456225E-1,-5.3119546E-1,1.4811262E0,-1.688039E-1,2.4938273E0,-5.580262E-1,-5.8087725E-2,-1.7379817E-1,1.6636503E0,-5.753816E-1,6.7364015E-3,-1.7018302E-1,1.8357292E0,-3.4943137E-1,1.4612319E-1,1.3152525E0,6.0194153E-2,5.94083E-2,1.3946524E0,-5.8896637E-1,1.2555204E-1,5.683185E-1,-5.9261996E-1,3.0670625E-1,1.3388096E0,-2.0619108E-1,1.4109845E0,-4.0396935E-1,7.671982E-1,-1.6169687E-1,-4.1794036E-2,-1.6480047E-1,8.776626E-1,-1.1573386E-1,8.671877E-1,4.3027598E-1,-1.7572151E-1,-1.7178905E-1,1.8842253E-1,-4.3025385E-3,5.181473E-1,-1.7665346E-1,-3.175562E-2,4.406E-1,-1.5404971E-1,5.944381E-1,2.38651E-1,-1.0866702E-1,7.4474394E-1,3.0200547E-1,-4.1960854E-2,-1.4411992E-1,4.2111513E-1,-9.457066E-2,1.8372881E-1,3.0119127E-1,-1.16191484E-1,4.1179657E-1,4.3475953E-1,-1.7833376E-1,-5.5950996E-2,-1.3060811E-1,4.4242597E-1,3.778503E-2,-1.7827141E-1,-6.749866E-2,2.6612672E-1,-1.5557364E-1,4.1843346E-1,4.192778E-1,8.243824E-1,5.9929293E-2,-1.4479539E-1,3.862802E-1,1.4576557E-1],"categories":[],"categories_nodes":[],"categories_segments":[],"categories_sizes":[],"default_left":[1,1,0,1,0,1,0,1,0,0,1,1,1,1,0,1,0,0,1,0,0,0,1,0,0,0,0,0,1,0,0,0,1,1,1,0,0,1,0,0,0,1,0,0,0,0,0,0,0,0,0,0,0,0,1,0,0,0,0,0,0,0,0,0,0,0,0,0,0,0,0,0,0,0,0,0,0,0,0,0,0,0,0,0,0,0,0,0,0,0,0,0,0,0,0,0,0,0,0,0,0,0,0],"id":10,"left_children":[1,3,5,7,9,11,13,15,17,-1,19,21,23,25,27,29,31,33,35,37,39,41,43,45,47,49,51,53,55,57,59,-1,61,63,65,-1,67,69,71,-1,73,75,77,79,81,83,85,87,-1,89,91,93,95,-1,97,99,101,-1,-1,-1,-1,-1,-1,-1,-1,-1,-1,-1,-1,-1,-1,-1,-1,-1,-1,-1,-1,-1,-1,-1,-1,-1,-1,-1,-1,-1,-1,-1,-1,-1,-1,-1,-1,-1,-1,-1,-1,-1,-1,-1,-1,-1,-1],"loss_changes":[3.3514547E4,5.548955E2,9.972967E3,4.1365332E2,1.1569716E3,2.947398E3,2.7863047E3,3.687002E2,4.2106302E2,0E0,3.0077576E2,2.1635947E3,6.1645654E2,4.4960884E3,1.2126426E3,1.8720508E2,1.8186469E2,1.7713676E1,2.892208E2,1.9334335E0,1.8994922E2,5.982404E2,3.4167505E2,1.1028076E1,2.028019E0,9.008789E0,2.5056943E3,2.7412695E2,3.354505E2,1.6832129E2,1.3750879E2,0E0,7.007849E1,1.7502274E1,3.352972E1,0E0,2.5065857E1,3.767357E-1,6.223468E0,0E0,5.9022827E1,3.75068E2,7.8484283E2,1.8010156E2,5.608628E1,3.468587E0,8.4228516E-2,2.7333832E-1,0E0,6.9762645E0,2.8059692E0,1.1713701E3,6.444697E2,0E0,2.3945117E2,1.3216595E1,3.15271E2,0E0,0E0,0E0,0E0,0E0,0E0,0E0,0E0,0E0,0E0,0E0,0E0,0E0,0E0,0E0,0E0,0E0,0E0,0E0,0E0,0E0,0E0,0E0,0E0,0E0,0E0,0E0,0E0,0E0,0E0,0E0,0E0,0E0,0E0,0E0,0E0,0E0,0E0,0E0,0E0,0E0,0E0,0E0,0E0,0E0,0E0],"parents":[2147483647,0,0,1,1,2,2,3,3,4,4,5,5,6,6,7,7,8,8,10,10,11,11,12,12,13,13,14,14,15,15,16,16,17,17,18,18,19,19,20,20,21,21,22,22,23,23,24,24,25,25,26,26,27,27,28,28,29,29,30,30,32,32,33,33,34,34,36,36,37,37,38,38,40,40,41,41,42,42,43,43,44,44,45,45,46,46,47,47,49,49,50,50,51,51,52,52,54,54,55,55,56,56],"right_children":[2,4,6,8,10,12,14,16,18,-1,20,22,24,26,28,30,32,34,36,38,40,42,44,46,48,50,52,54,56,58,60,-1,62,64,66,-1,68,70,72,-1,74,76,78,80,82,84,86,88,-1,90,92,94,96,-1,98,100,102,-1,-1,-1,-1,-1,-1,-1,-1,-1,-1,-1,-1,-1,-1,-1,-1,-1,-1,-1,-1,-1,-1,-1,-1,-1,-1,-1,-1,-1,-1,-1,-1,-1,-1,-1,-1,-1,-1,-1,-1,-1,-1,-1,-1,-1,-1],"split_conditions":[1.843E3,4.299315E-1,1.97E3,1.925E3,4.7E1,2.6454276E-1,2.76907E5,8.2118654E-1,8E1,-1.7807682E-1,1.5E1,4.527165E-1,2.8E1,7E0,2.9E1,6.30231E-1,4.2E1,6.3E1,4.7E1,2.006E3,7.561741E-1,1.913E3,1.1E1,2.7E1,1.966E3,6.21514E-1,1.913E3,3E0,1.1E1,1.838E3,4.7E1,-1.688039E-1,1.5E3,9.6E2,4.7E1,-1.7379817E-1,6E0,1.1E1,2.01E3,-1.7018302E-1,2.00001E0,6.253848E-1,2.8E1,4.54E2,4.7E1,1.897E3,1.92E3,1.936E3,1.2555204E-1,3.4957427E-1,5.832614E-1,1.2E1,4.3E1,-2.0619108E-1,4.513494E-1,2.00001E0,2.9E1,-1.6169687E-1,-4.1794036E-2,-1.6480047E-1,8.776626E-1,-1.1573386E-1,8.671877E-1,4.3027598E-1,-1.7572151E-1,-1.7178905E-1,1.8842253E-1,-4.3025385E-3,5.181473E-1,-1.7665346E-1,-3.175562E-2,4.406E-1,-1.5404971E-1,5.944381E-1,2.38651E-1,-1.0866702E-1,7.4474394E-1,3.0200547E-1,-4.1960854E-2,-1.4411992E-1,4.2111513E-1,-9.457066E-2,1.8372881E-1,3.0119127E-1,-1.16191484E-1,4.1179657E-1,4.3475953E-1,-1.7833376E-1,-5.5950996E-2,-1.3060811E-1,4.4242597E-1,3.778503E-2,-1.7827141E-1,-6.749866E-2,2.6612672E-1,-1.5557364E-1,4.1843346E-1,4.192778E-1,8.243824E-1,5.9929293E-2,-1.4479539E-1,3.862802E-1,1.4576557E-1],"split_indices":[9,37,3,10,11,86,5,67,12,0,6,92,11,6,11,93,11,12,11,3,88,9,13,11,3,74,9,11,4,9,11,0,9,9,11,0,5,6,3,0,162,67,11,5,11,10,9,9,0,61,71,6,11,0,14,100,4,0,0,0,0,0,0,0,0,0,0,0,0,0,0,0,0,0,0,0,0,0,0,0,0,0,0,0,0,0,0,0,0,0,0,0,0,0,0,0,0,0,0,0,0,0,0],"split_type":[0,0,0,0,0,0,0,0,0,0,0,0,0,0,0,0,0,0,0,0,0,0,0,0,0,0,0,0,0,0,0,0,0,0,0,0,0,0,0,0,0,0,0,0,0,0,0,0,0,0,0,0,0,0,0,0,0,0,0,0,0,0,0,0,0,0,0,0,0,0,0,0,0,0,0,0,0,0,0,0,0,0,0,0,0,0,0,0,0,0,0,0,0,0,0,0,0,0,0,0,0,0,0],"sum_hessian":[1.0254685E5,5.730544E4,4.524141E4,5.596817E4,1.33727E3,1.6820578E4,2.8420834E4,5.52649E4,7.032711E2,8.284779E2,5.0879218E2,1.4912273E4,1.9083047E3,1.2339514E4,1.6081319E4,5.5177277E4,8.762126E1,3.9374487E2,3.095262E2,7.464855E1,4.3414362E2,1.3515153E4,1.3971201E3,1.7337247E3,1.7458E2,2.3537805E3,9.985733E3,1.3649298E4,2.432021E3,5.513194E4,4.5338078E1,2.8265942E1,5.935532E1,3.0079462E2,9.2950264E1,7.554107E1,2.3398514E2,6.8457275E1,6.191275E0,3.539625E1,3.9874738E2,1.032779E4,3.1873633E3,1.1285284E3,2.6859167E2,6.298861E0,1.7274258E3,1.7322229E2,1.3577029E0,5.962441E0,2.347818E3,3.7942246E3,6.1915093E3,6.1999073E1,1.3587299E4,2.751973E2,2.1568237E3,5.405644E4,1.0754989E3,1.9103443E1,2.6234636E1,7.191754E0,5.2163567E1,3.4302735E0,2.9736435E2,5.3212517E1,3.973775E1,8.56096E0,2.2542418E2,6.6302025E1,2.155258E0,1.1464679E0,5.0448074E0,3.489554E2,4.9791946E1,1.0282217E4,4.557363E1,7.944167E2,2.3929465E3,5.277952E1,1.0757489E3,1.6014703E2,1.0844463E2,1.6219119E0,4.676949E0,1.2496392E3,4.7778668E2,1.7042497E2,2.797324E0,3.0760672E0,2.8863738E0,5.102479E0,2.3427156E3,1.9804772E3,1.8137474E3,1.8086923E2,6.0106396E3,1.3454573E4,1.3272554E2,3.155258E1,2.4364471E2,7.555503E2,1.4012736E3],"tree_param":{"num_deleted":"0","num_feature":"214","num_nodes":"103","size_leaf_vector":"1"}},{"base_weights":[3.808499E-3,-4.248197E-1,5.6747323E-1,1.1230596E0,-4.5152786E-1,8.3592063E-1,-5.5663145E-1,2.3173757E-2,1.3228554E0,8.0461687E-1,-4.6859646E-1,2.3006363E-1,1.3301021E0,8.3098996E-1,-5.693934E-1,1.3909267E0,-1.5044953E-1,-1.8313709E-1,1.3670942E0,1.3850312E0,-5.2740496E-1,-4.8881057E-1,3.3272696E-1,7.18622E-1,-5.697145E-1,1.3844864E0,8.760027E-1,1.2327831E0,-4.5850742E-1,1.2333474E0,-5.7135E-1,-1.0204706E-1,1.5405066E0,-3.4602815E-1,8.9031345E-1,5.505572E-1,1.481445E0,1.4498507E0,-2.1938236E-1,-5.498926E-1,6.114725E-1,-2.494097E-1,-5.3379244E-1,-6.858108E-2,1.425371E0,1.2537259E0,-1.5842275E-1,-5.733631E-1,1.0994226E0,1.3606851E0,1.8685586E0,3.9431232E-1,1.2528613E0,-1.6018532E-1,1.4891448E0,-1.5781853E-1,4.0450584E-2,1.4176742E0,-3.6691744E-2,-4.2868802E-1,-5.7679E-1,4.869044E-1,9.1905385E-2,-1.4523992E-1,6.378773E-2,3.7979028E-1,-1.462601E-1,4.377888E-1,2.6191572E-2,4.567798E-1,-1.6094416E-1,6.5977834E-2,4.3791074E-1,-1.4350967E-1,3.5878977E-1,-1.6638733E-1,5.8054466E-2,4.1178912E-1,-1.13791004E-1,1.9745232E-1,-1.08880736E-1,-1.3778953E-1,-1.7116019E-1,4.6315244E-1,-6.791563E-2,4.6934745E-1,-1.5208401E-1,-1.6801864E-1,4.233527E-1,1.84965E-1,-1.0485218E-1,-1.7224535E-1,5.791613E-1,4.2711723E-1,-1.1889052E-1,4.113301E-1,-4.7042724E-2,6.984539E-1,4.121574E-1,4.0418568E-1,4.4356834E-4,4.1409013E-1,7.491367E-2,4.7476143E-1,-1.2356112E-1,5.556315E-2,4.7124165E-1,6.882983E-1,-1.6032794E-1,-1.7320576E-1,-6.566486E-2],"categories":[],"categories_nodes":[],"categories_segments":[],"categories_sizes":[],"default_left":[0,0,1,0,0,0,0,0,0,0,1,0,0,1,0,0,1,0,0,0,1,0,1,1,1,1,0,0,1,0,0,0,1,0,0,0,0,0,0,1,0,0,0,0,0,0,0,1,0,1,0,0,0,0,0,0,0,0,0,1,0,0,0,0,0,0,0,0,0,0,0,0,0,0,0,0,0,0,0,0,0,0,0,0,0,0,0,0,0,0,0,0,0,0,0,0,0,0,0,0,0,0,0,0,0,0,0,0,0,0,0],"id":11,"left_children":[1,3,5,7,9,11,13,15,17,19,21,23,25,27,29,31,33,-1,35,37,39,41,43,45,47,49,51,53,55,57,59,-1,61,63,65,67,69,71,73,75,77,79,81,83,85,87,89,91,93,95,97,99,101,-1,103,-1,-1,105,-1,107,109,-1,-1,-1,-1,-1,-1,-1,-1,-1,-1,-1,-1,-1,-1,-1,-1,-1,-1,-1,-1,-1,-1,-1,-1,-1,-1,-1,-1,-1,-1,-1,-1,-1,-1,-1,-1,-1,-1,-1,-1,-1,-1,-1,-1,-1,-1,-1,-1,-1,-1],"loss_changes":[2.4728965E4,2.4041309E3,1.3342165E4,2.1675098E2,1.2258359E3,1.0685363E4,1.514148E2,3.646349E1,7.223413E1,5.93405E2,9.135742E2,6.26572E3,4.8421875E2,4.102121E1,3.0497803E1,5.0020905E0,2.8066734E1,0E0,7.541748E1,5.5874878E1,6.313324E0,5.921797E2,6.087564E2,4.671909E3,3.766504E1,1.996914E2,3.816333E2,2.788205E1,8.4368515E-1,2.5407972E0,6.3012695E0,0E0,1.1421738E0,9.015579E0,1.1928057E1,4.2763367E1,6.0241943E1,5.9022217E0,8.494422E0,9.14238E-1,4.2856693E0,8.968383E2,1.2646875E2,2.5891174E2,1.0104242E2,1.7663975E3,5.589273E2,1.3082275E1,7.1644096E0,2.6468555E2,1.832273E2,3.4645547E2,1.5058142E2,0E0,9.971031E0,0E0,0E0,1.298069E0,0E0,9.15882E1,1.5095215E0,0E0,0E0,0E0,0E0,0E0,0E0,0E0,0E0,0E0,0E0,0E0,0E0,0E0,0E0,0E0,0E0,0E0,0E0,0E0,0E0,0E0,0E0,0E0,0E0,0E0,0E0,0E0,0E0,0E0,0E0,0E0,0E0,0E0,0E0,0E0,0E0,0E0,0E0,0E0,0E0,0E0,0E0,0E0,0E0,0E0,0E0,0E0,0E0,0E0,0E0],"parents":[2147483647,0,0,1,1,2,2,3,3,4,4,5,5,6,6,7,7,8,8,9,9,10,10,11,11,12,12,13,13,14,14,15,15,16,16,18,18,19,19,20,20,21,21,22,22,23,23,24,24,25,25,26,26,27,27,28,28,29,29,30,30,32,32,33,33,34,34,35,35,36,36,37,37,38,38,39,39,40,40,41,41,42,42,43,43,44,44,45,45,46,46,47,47,48,48,49,49,50,50,51,51,52,52,54,54,57,57,59,59,60,60],"right_children":[2,4,6,8,10,12,14,16,18,20,22,24,26,28,30,32,34,-1,36,38,40,42,44,46,48,50,52,54,56,58,60,-1,62,64,66,68,70,72,74,76,78,80,82,84,86,88,90,92,94,96,98,100,102,-1,104,-1,-1,106,-1,108,110,-1,-1,-1,-1,-1,-1,-1,-1,-1,-1,-1,-1,-1,-1,-1,-1,-1,-1,-1,-1,-1,-1,-1,-1,-1,-1,-1,-1,-1,-1,-1,-1,-1,-1,-1,-1,-1,-1,-1,-1,-1,-1,-1,-1,-1,-1,-1,-1,-1,-1],"split_conditions":[2.76907E5,2.00001E0,4.3E1,4.9E1,2.7E1,2.8E1,7.8306115E-1,1.615E3,2.4E1,1.952E3,4.1340193E-1,2.6E1,1.987E3,1.825E3,7.0404357E-1,1E1,3.2855892E-1,-1.8313709E-1,1.912E3,9.05E2,6.030361E-1,2.68E2,2.707772E-1,1.9E3,6.561221E-1,9.9E1,2.004E3,4.5E1,5E1,1.857E3,4.7E1,-1.0204706E-1,5.354254E-1,2.00001E0,3.9E1,1.6E3,3.9E1,2.00001E0,1.901E3,8.442871E-1,2.017E3,1.27E2,2.6E1,2.1E1,1.3504E4,7E0,1.975E3,2.026E3,1.923E3,4.2E1,3.1E1,1.9E3,3.2E1,-1.6018532E-1,4.7E1,-1.5781853E-1,4.0450584E-2,6.99E2,-3.6691744E-2,1.799E3,4.9E1,4.869044E-1,9.1905385E-2,-1.4523992E-1,6.378773E-2,3.7979028E-1,-1.462601E-1,4.377888E-1,2.6191572E-2,4.567798E-1,-1.6094416E-1,6.5977834E-2,4.3791074E-1,-1.4350967E-1,3.5878977E-1,-1.6638733E-1,5.8054466E-2,4.1178912E-1,-1.13791004E-1,1.9745232E-1,-1.08880736E-1,-1.3778953E-1,-1.7116019E-1,4.6315244E-1,-6.791563E-2,4.6934745E-1,-1.5208401E-1,-1.6801864E-1,4.233527E-1,1.84965E-1,-1.0485218E-1,-1.7224535E-1,5.791613E-1,4.2711723E-1,-1.1889052E-1,4.113301E-1,-4.7042724E-2,6.984539E-1,4.121574E-1,4.0418568E-1,4.4356834E-4,4.1409013E-1,7.491367E-2,4.7476143E-1,-1.2356112E-1,5.556315E-2,4.7124165E-1,6.882983E-1,-1.6032794E-1,-1.7320576E-1,-6.566486E-2],"split_indices":[5,97,11,13,12,11,92,10,11,9,36,11,3,9,111,6,106,0,3,5,106,5,54,9,82,13,3,11,13,9,11,0,24,2,11,9,11,2,9,89,3,12,11,11,5,9,3,10,9,4,4,9,11,0,11,0,0,10,0,10,11,0,0,0,0,0,0,0,0,0,0,0,0,0,0,0,0,0,0,0,0,0,0,0,0,0,0,0,0,0,0,0,0,0,0,0,0,0,0,0,0,0,0,0,0,0,0,0,0,0,0],"split_type":[0,0,0,0,0,0,0,0,0,0,0,0,0,0,0,0,0,0,0,0,0,0,0,0,0,0,0,0,0,0,0,0,0,0,0,0,0,0,0,0,0,0,0,0,0,0,0,0,0,0,0,0,0,0,0,0,0,0,0,0,0,0,0,0,0,0,0,0,0,0,0,0,0,0,0,0,0,0,0,0,0,0,0,0,0,0,0,0,0,0,0,0,0,0,0,0,0,0,0,0,0,0,0,0,0,0,0,0,0,0,0],"sum_hessian":[1.0235189E5,5.814038E4,4.4211508E4,9.85481E2,5.71549E4,3.56889E4,8.522608E3,1.5166624E2,8.3381476E2,7.6559656E2,5.6389305E4,1.6033545E4,1.9655354E4,7.708358E1,8.445525E3,1.6294197E1,1.3537204E2,1.8366568E1,8.1544824E2,5.332143E2,2.3238226E2,5.5002215E4,1.3870889E3,9.953424E3,6.0801206E3,1.7551307E4,2.1040466E3,5.8804676E1,1.8278904E1,8.474059E0,8.437051E3,1.1946349E0,1.5099562E1,1.1451928E2,2.0852764E1,1.0088435E2,7.1456384E2,5.126012E2,2.0613104E1,2.2838977E2,3.992497E0,8.700937E3,4.6301277E4,1.01517206E3,3.7191678E2,6.181518E3,3.7719062E3,6.0675137E3,1.2606788E1,1.67324E4,8.189062E2,9.244659E2,1.1795808E3,7.314374E0,5.1490303E1,1.6512308E1,1.7665957E0,7.419489E0,1.0545698E0,3.1283627E2,8.124215E3,1.3858017E1,1.2415442E0,9.192731E1,2.2591972E1,1.6449263E1,4.4035015E0,3.3337563E1,6.754678E1,7.005226E2,1.4041282E1,4.258654E0,5.0834256E2,1.7984314E1,2.6287892E0,2.271976E2,1.1921774E0,2.0399258E0,1.9525712E0,9.668288E2,7.734108E3,1.5297958E4,3.100332E4,8.971311E1,9.254589E2,3.4711594E2,2.4800821E1,4.935355E2,5.6879824E3,7.456362E2,3.02627E3,6.0663755E3,1.1384791E0,1.0400005E1,2.206782E0,1.6618438E4,1.1396348E2,4.2258286E2,3.963233E2,2.691374E2,6.553285E2,1.0462856E3,1.3329509E2,4.9238827E1,2.2514777E0,1.0641621E0,6.355327E0,1.092008E1,3.019162E2,8.1108535E3,1.3361524E1],"tree_param":{"num_deleted":"0","num_feature":"214","num_nodes":"111","size_leaf_vector":"1"}},{"base_weights":[-5.7144454E-3,-1.6723715E-1,5.2998465E-1,-5.4811656E-1,7.611855E-1,2.2562668E-1,-5.5106175E-1,-8.560731E-2,8.48291E-1,-1.5787637E-1,3.1860787E-1,2.7740148E-1,-5.519714E-1,-2.913081E-1,9.989194E-1,8.9206076E-1,3.2469895E-2,-5.524481E-1,3.160055E-1,9.888842E-1,-3.7985715E-1,-1.5498498E-1,1.0223103E0,9.098729E-1,-4.3165097E-1,-3.3948123E-1,3.96842E-1,2.631794E-1,-1.6588098E-1,-1.4613885E-1,3.1120068E-1,-1.3241257E-1,2.2565717E-1,3.0797496E-1,-1.2100155E-1,2.7758256E-1,-1.7720437E-1,2.5219935E-1,-1.9462419E-1,3.3315223E-1,-1.3209228E-1,2.817271E-1,-1.7498553E-2],"categories":[],"categories_nodes":[],"categories_segments":[],"categories_sizes":[],"default_left":[1,0,0,0,0,0,0,0,1,0,0,0,1,1,0,1,0,0,0,0,0,0,1,0,0,0,1,0,0,0,0,0,0,0,0,0,0,0,0,0,0,0,0],"id":12,"left_children":[1,-1,3,5,7,9,11,13,15,-1,-1,-1,17,19,21,23,25,27,-1,29,31,-1,33,35,37,39,41,-1,-1,-1,-1,-1,-1,-1,-1,-1,-1,-1,-1,-1,-1,-1,-1],"loss_changes":[2.7377844E4,0E0,1.1714853E4,1.903711E1,2.8545E3,2.079664E1,1.1609619E1,8.0572095E2,1.2529531E3,0E0,0E0,0E0,6.906006E0,3.4448416E2,2.094104E1,7.856074E2,2.4242796E2,6.255371E0,0E0,1.4569305E1,1.9810553E2,0E0,3.8706055E0,7.600215E2,1.2286864E2,1.2990561E2,2.2306337E2,0E0,0E0,0E0,0E0,0E0,0E0,0E0,0E0,0E0,0E0,0E0,0E0,0E0,0E0,0E0,0E0],"parents":[2147483647,0,0,2,2,3,3,4,4,5,5,6,6,7,7,8,8,12,12,13,13,14,14,15,15,16,16,17,17,19,19,20,20,22,22,23,23,24,24,25,25,26,26],"right_children":[2,-1,4,6,8,10,12,14,16,-1,-1,-1,18,20,22,24,26,28,-1,30,32,-1,34,36,38,40,42,-1,-1,-1,-1,-1,-1,-1,-1,-1,-1,-1,-1,-1,-1,-1,-1],"split_conditions":[4.7E1,-1.6723715E-1,1.525E3,3E0,9E1,2.016E3,4.7E1,2.9E1,3.653148E-1,-1.5787637E-1,3.1860787E-1,2.7740148E-1,8.263936E-1,7E0,2.00001E0,7.353527E-1,2.8579E4,8.025653E-1,3.160055E-1,2.00001E0,2.018E3,-1.5498498E-1,9.9E1,4.8E1,1E1,8.7E1,1.5E1,2.631794E-1,-1.6588098E-1,-1.4613885E-1,3.1120068E-1,-1.3241257E-1,2.2565717E-1,3.0797496E-1,-1.2100155E-1,2.7758256E-1,-1.7720437E-1,2.5219935E-1,-1.9462419E-1,3.3315223E-1,-1.3209228E-1,2.817271E-1,-1.7498553E-2],"split_indices":[11,0,9,5,12,3,7,4,92,0,0,0,49,6,76,69,5,111,0,106,3,0,13,11,6,5,6,0,0,0,0,0,0,0,0,0,0,0,0,0,0,0,0],"split_type":[0,0,0,0,0,0,0,0,0,0,0,0,0,0,0,0,0,0,0,0,0,0,0,0,0,0,0,0,0,0,0,0,0,0,0,0,0,0,0,0,0,0,0],"sum_hessian":[9.262588E4,4.5629645E4,4.6996242E4,8.298509E3,3.869773E4,3.118097E1,8.267328E3,3.6093691E3,3.5088363E4,1.6615381E1,1.4565587E1,4.4671173E0,8.26286E3,3.0345427E3,5.748264E2,3.3301598E4,1.7867644E3,8.261063E3,1.7972757E0,1.9565825E2,2.8388845E3,8.4165535E0,5.6640985E2,3.2859742E4,4.4185532E2,8.842204E2,9.02544E2,2.208448E0,8.2588545E3,5.9307547E0,1.897275E2,2.693143E3,1.4574149E2,5.6499634E2,1.4134952E0,3.2526264E4,3.3347855E2,6.398605E1,3.7786926E2,5.6836605E1,8.273838E2,4.1138937E2,4.9115466E2],"tree_param":{"num_deleted":"0","num_feature":"214","num_nodes":"43","size_leaf_vector":"1"}},{"base_weights":[-1.0450579E-2,9.253408E-1,-5.4442793E-1,9.3754065E-1,-5.048184E-1,2.9979086E-1,-5.50555E-1,9.5301753E-1,3.2531455E-1,8.0112517E-1,-5.4027367E-1,-5.5143774E-1,9.164146E-1,-5.1748925E-1,9.592124E-1,-3.561921E-1,6.838499E-1,-9.1777146E-2,3.146597E-1,2.5779086E-1,-1.6552849E-1,-3.7213346E-1,-5.564622E-1,2.9702833E-1,-1.10278055E-1,2.672157E-1,-1.6440643E-1,7.4140406E-1,9.767952E-1,3.4080833E-1,-4.710665E-1,-1.697566E-1,9.2121196E-1,-4.925385E-1,4.5530247E-3,-2.4552363E-1,-5.565026E-1,2.7959543E-1,-1.1849176E-2,2.934766E-1,-1.3928068E-1,2.5079724E-1,-1.6118439E-1,2.804624E-1,-1.2631798E-1,3.0422214E-1,1.3006245E-1,-1.5736403E-1,4.7639243E-2,-5.0322328E-2,4.604635E-1,-1.489627E-1,2.1361154E-1,-1.6702849E-1,-1.5929571E-1],"categories":[],"categories_nodes":[],"categories_segments":[],"categories_sizes":[],"default_left":[0,1,0,1,0,0,1,0,0,0,0,1,0,0,0,0,0,0,0,0,0,0,0,0,0,0,0,0,1,0,0,0,0,1,0,0,1,0,0,0,0,0,0,0,0,0,0,0,0,0,0,0,0,0,0],"id":13,"left_children":[1,3,5,7,9,-1,11,13,15,17,19,21,23,25,27,29,31,-1,-1,-1,-1,33,35,-1,-1,-1,-1,37,39,-1,41,43,45,47,49,51,53,-1,-1,-1,-1,-1,-1,-1,-1,-1,-1,-1,-1,-1,-1,-1,-1,-1,-1],"loss_changes":[4.5830094E4,5.8185156E2,5.528887E2,3.127539E2,1.3512901E1,0E0,7.582422E1,2.940547E2,1.9966783E2,2.4791574E0,4.9056473E0,5.2164062E1,3.7086182E0,6.3284645E0,1.2216797E2,4.8877384E1,1.0858458E2,0E0,0E0,0E0,0E0,7.200618E1,5.722656E-1,0E0,0E0,0E0,0E0,3.5738428E2,6.2927734E1,0E0,2.3173046E1,3.2949276E1,1.8529297E1,2.5164307E1,1.0190845E2,2.5489492E0,7.8125E-2,0E0,0E0,0E0,0E0,0E0,0E0,0E0,0E0,0E0,0E0,0E0,0E0,0E0,0E0,0E0,0E0,0E0,0E0],"parents":[2147483647,0,0,1,1,2,2,3,3,4,4,6,6,7,7,8,8,9,9,10,10,11,11,12,12,13,13,14,14,15,15,16,16,21,21,22,22,27,27,28,28,30,30,31,31,32,32,33,33,34,34,35,35,36,36],"right_children":[2,4,6,8,10,-1,12,14,16,18,20,22,24,26,28,30,32,-1,-1,-1,-1,34,36,-1,-1,-1,-1,38,40,-1,42,44,46,48,50,52,54,-1,-1,-1,-1,-1,-1,-1,-1,-1,-1,-1,-1,-1,-1,-1,-1,-1,-1],"split_conditions":[3E2,5.4819244E-1,2.00001E0,3.75E2,-1.279E3,2.9979086E-1,1E0,5.3229046E-1,9.16E2,2.2E1,1.875E3,7E2,1.199E3,1.968E3,2.00001E0,1.882E3,2.00001E0,-9.1777146E-2,3.146597E-1,2.5779086E-1,-1.6552849E-1,2.00001E0,2.00001E0,2.9702833E-1,-1.10278055E-1,2.672157E-1,-1.6440643E-1,1.962E3,6.754336E-1,3.4080833E-1,2.00001E0,-3E1,5.476E3,8.99E2,4.2E1,1.45E3,7.043789E-1,2.7959543E-1,-1.1849176E-2,2.934766E-1,-1.3928068E-1,2.5079724E-1,-1.6118439E-1,2.804624E-1,-1.2631798E-1,3.0422214E-1,1.3006245E-1,-1.5736403E-1,4.7639243E-2,-5.0322328E-2,4.604635E-1,-1.489627E-1,2.1361154E-1,-1.6702849E-1,-1.5929571E-1],"split_indices":[9,179,188,10,10,0,181,177,5,11,3,9,10,3,213,3,213,0,0,0,0,213,193,0,0,0,0,3,38,0,50,9,5,10,11,10,61,0,0,0,0,0,0,0,0,0,0,0,0,0,0,0,0,0,0],"split_type":[0,0,0,0,0,0,0,0,0,0,0,0,0,0,0,0,0,0,0,0,0,0,0,0,0,0,0,0,0,0,0,0,0,0,0,0,0,0,0,0,0,0,0,0,0,0,0,0,0,0,0,0,0,0,0],"sum_hessian":[9.171478E4,3.332036E4,5.8394418E4,3.303887E4,2.8149124E2,2.3021127E2,5.8164207E4,3.2223709E4,8.1516125E2,6.869456E0,2.746218E2,5.8129855E4,3.4353806E1,1.3483514E2,3.2088873E4,2.8101407E2,5.3414716E2,1.2132212E0,5.6562347E0,1.6349561E0,2.7298685E2,1.5865648E3,5.654329E4,3.2705956E1,1.6478499E0,2.263528E0,1.3257161E2,2.4001309E3,2.9688742E4,1.9451359E1,2.615627E2,1.16276405E2,4.1787076E2,1.2020355E3,3.8452933E2,8.133538E0,5.6535156E4,1.9291293E3,4.7100153E2,2.9659012E4,2.97302E1,1.2051176E1,2.4951154E2,2.1046055E1,9.5230354E1,3.5012155E2,6.774921E1,1.145917E3,5.611847E1,3.4641772E2,3.8111603E1,6.8256817E0,1.3078567E0,5.594637E4,5.887852E2],"tree_param":{"num_deleted":"0","num_feature":"214","num_nodes":"55","size_leaf_vector":"1"}},{"base_weights":[-2.6006328E-3,4.5258126E-1,-5.561346E-1,-1.4000209E-1,9.875114E-1,2.1902587E-1,-5.562195E-1,-3.5922962E-1,4.4001845E-1,9.87612E-1,-1.07153945E-1,-5.5655396E-1,-4.67892E-1,-1.6400199E-1,-5.557453E-1,7.493191E-1,-5.1443535E-1,9.84328E-1,3.0219913E-1,-1.6698185E-1,-4.410811E-1,-1.6632423E-1,4.934535E-1,-2.3801042E-1,8.957364E-1,-5.5640185E-1,2.6221067E-1,5.054596E-1,1.4992365E0,-2.7893911E-4,-5.513843E-1,1.0099148E0,2.9468024E-1,-1.5991813E-1,2.3263703E-1,-1.4812271E-1,1.2362106E0,-8.7874055E-2,3.398916E-1,-3.5551412E-3,7.344272E-1,-1.6713895E-1,7.377335E-2,2.7053928E-1,-7.1842924E-2,5.348601E-1,3.0888778E-1,3.4309644E-1,-6.6782236E-2,-1.6665739E-1,1.2796843E-1,3.1582165E-1,2.9734057E-1,9.705959E-2,4.364543E-1],"categories":[],"categories_nodes":[],"categories_segments":[],"categories_sizes":[],"default_left":[0,0,0,0,0,0,1,0,0,0,0,1,0,0,1,0,0,0,0,0,0,0,0,1,0,1,0,0,0,0,1,1,0,0,0,0,0,0,0,0,0,0,0,0,0,0,0,0,0,0,0,0,0,0,0],"id":14,"left_children":[1,3,5,7,9,-1,11,13,15,17,-1,19,21,23,25,27,29,31,-1,-1,33,-1,35,37,39,41,-1,43,45,47,49,51,-1,-1,-1,-1,53,-1,-1,-1,-1,-1,-1,-1,-1,-1,-1,-1,-1,-1,-1,-1,-1,-1,-1],"loss_changes":[2.3196982E4,1.6015039E4,4.9453125E0,3.048105E3,3.9433594E0,0E0,9.6777344E-1,6.673037E2,1.9414854E3,7.285156E-1,0E0,3.90625E-3,1.3828453E1,6.8474005E2,8.623779E0,9.074663E2,3.0583405E1,2.0898438E-1,0E0,0E0,3.0438638E0,0E0,1.0864747E1,6.144668E2,8.0302765E2,5.197998E0,0E0,1.1071553E3,1.6041992E2,2.7959776E1,6.3182373E0,2.9492188E-1,0E0,0E0,0E0,0E0,1.1787252E0,0E0,0E0,0E0,0E0,0E0,0E0,0E0,0E0,0E0,0E0,0E0,0E0,0E0,0E0,0E0,0E0,0E0,0E0],"parents":[2147483647,0,0,1,1,2,2,3,3,4,4,6,6,7,7,8,8,9,9,11,11,12,12,13,13,14,14,15,15,16,16,17,17,20,20,22,22,23,23,24,24,25,25,27,27,28,28,29,29,30,30,31,31,36,36],"right_children":[2,4,6,8,10,-1,12,14,16,18,-1,20,22,24,26,28,30,32,-1,-1,34,-1,36,38,40,42,-1,44,46,48,50,52,-1,-1,-1,-1,54,-1,-1,-1,-1,-1,-1,-1,-1,-1,-1,-1,-1,-1,-1,-1,-1,-1,-1],"split_conditions":[1.7309E4,1.3504E4,4.65451E-1,1.982E3,4.7E1,2.1902587E-1,6.510023E-1,6.09E2,3.3E1,1.867E3,-1.07153945E-1,7.547831E-1,3E1,1.898E3,1E0,2.6E1,4.2E1,7E2,3.0219913E-1,-1.6698185E-1,1.96E3,-1.6632423E-1,6.00001E0,3.7234703E-1,1.24E2,8.28274E-1,2.6221067E-1,2.2E1,2.00001E0,6E0,5.9750503E-1,5.3419226E-1,2.9468024E-1,-1.5991813E-1,2.3263703E-1,-1.4812271E-1,1.99E3,-8.7874055E-2,3.398916E-1,-3.5551412E-3,7.344272E-1,-1.6713895E-1,7.377335E-2,2.7053928E-1,-7.1842924E-2,5.348601E-1,3.0888778E-1,3.4309644E-1,-6.6782236E-2,-1.6665739E-1,1.2796843E-1,3.1582165E-1,2.9734057E-1,9.705959E-2,4.364543E-1],"split_indices":[5,5,174,3,11,0,61,5,11,9,0,52,4,9,205,11,11,9,0,0,9,0,8,61,12,99,0,11,213,5,104,179,0,0,0,0,9,0,0,0,0,0,0,0,0,0,0,0,0,0,0,0,0,0,0],"split_type":[0,0,0,0,0,0,0,0,0,0,0,0,0,0,0,0,0,0,0,0,0,0,0,0,0,0,0,0,0,0,0,0,0,0,0,0,0,0,0,0,0,0,0,0,0,0,0,0,0,0,0,0,0,0,0],"sum_hessian":[9.206463E4,5.052067E4,4.1543965E4,2.3969049E4,2.6551623E4,2.17621E0,4.154179E4,1.73948E4,6.5742476E3,2.6549902E4,1.7209027E0,4.1379824E4,1.6196295E2,8.726918E3,8.667883E3,4.96538E3,1.6088679E3,2.2803008E4,3.7468933E3,4.1357316E4,2.2508354E1,1.4897806E2,1.2984894E1,8.1579697E3,5.689487E2,8.664515E3,3.367742E0,3.7482056E3,1.2171742E3,1.07934425E2,1.5009335E3,1.6630974E3,2.1139912E4,2.144851E1,1.0598454E0,5.719021E0,7.265873E0,7.844607E3,3.1336282E2,3.5966327E2,2.0928546E2,8.656966E3,7.549093E0,2.4464033E3,1.3018022E3,7.5710785E2,4.600664E2,1.6889563E1,9.104486E1,1.495036E3,5.897494E0,4.9020312E2,1.1728943E3,1.883433E0,5.38244E0],"tree_param":{"num_deleted":"0","num_feature":"214","num_nodes":"55","size_leaf_vector":"1"}},{"base_weights":[2.3615214E-3,5.0746465E-1,-3.3376154E-1,-4.7264984E-1,6.4056736E-1,-1.9410314E-1,-5.442034E-1,7.574419E-1,-5.2138805E-1,7.629221E-1,-3.160873E-1,-1.659902E-1,-5.8584362E-2,-5.59654E-1,1.1187179E0,1.1134678E0,-1.6113144E-1,1.0592002E0,-5.281188E-1,7.973667E-1,-1.6757977E-1,-1.6828017E-1,3.1302887E-1,1.1019909E0,-3.665743E-1,-5.748144E-1,-1.6663593E-1,3.5800564E-1,-3.853939E-1,-1.3746649E-1,1.1396565E0,3.4478432E-1,2.2839647E-2,-5.46402E-1,-3.4222034E-1,8.637743E-1,9.9918425E-2,1.1090108E0,1.7499219E-1,-4.570185E-1,7.2487336E-1,-1.6611667E-1,-1.8171665E-1,1.12676E-1,-1.5238617E-1,-1.16188444E-1,3.4841752E-1,-2.2166789E-2,-1.656818E-1,-1.4047095E-1,7.597716E-2,2.6482368E-1,-1.4469038E-1,1.1960421E-1,-1.06082164E-1,3.347321E-1,6.314437E-2,-2.342463E-1,1.6987564E-1,-1.417869E-1,2.6401865E-1,2.906127E-1,-9.013331E-2],"categories":[],"categories_nodes":[],"categories_segments":[],"categories_sizes":[],"default_left":[0,1,0,0,0,0,1,0,0,0,0,0,0,0,0,0,0,0,1,0,0,0,0,1,1,0,0,0,0,0,0,0,0,0,0,1,0,1,1,1,0,0,0,0,0,0,0,0,0,0,0,0,0,0,0,0,0,0,0,0,0,0,0],"id":15,"left_children":[1,3,5,7,9,11,13,15,17,19,21,-1,23,25,27,29,-1,31,33,35,-1,-1,-1,37,39,41,-1,-1,43,-1,45,-1,-1,47,49,51,53,55,57,59,61,-1,-1,-1,-1,-1,-1,-1,-1,-1,-1,-1,-1,-1,-1,-1,-1,-1,-1,-1,-1,-1,-1],"loss_changes":[1.5925727E4,4.889866E3,1.6552349E3,2.6910034E2,3.8628857E3,1.6480562E3,5.778833E2,7.9513275E1,4.642993E1,1.3322441E3,1.2464332E3,0E0,8.787685E3,1.0986328E0,2.3715485E1,6.063095E0,0E0,1.5610466E0,1.4407959E1,1.3206152E3,0E0,0E0,0E0,3.335791E1,1.9182275E3,2.7946777E0,0E0,0E0,1.1746697E0,0E0,4.853775E0,0E0,0E0,1.0799927E1,2.9173092E1,6.653008E2,3.361932E2,3.0858887E1,1.5377815E1,3.747754E2,3.7209412E2,0E0,0E0,0E0,0E0,0E0,0E0,0E0,0E0,0E0,0E0,0E0,0E0,0E0,0E0,0E0,0E0,0E0,0E0,0E0,0E0,0E0,0E0],"parents":[2147483647,0,0,1,1,2,2,3,3,4,4,5,5,6,6,7,7,8,8,9,9,10,10,12,12,13,13,14,14,15,15,17,17,18,18,19,19,23,23,24,24,25,25,28,28,30,30,33,33,34,34,35,35,36,36,37,37,38,38,39,39,40,40],"right_children":[2,4,6,8,10,12,14,16,18,20,22,-1,24,26,28,30,-1,32,34,36,-1,-1,-1,38,40,42,-1,-1,44,-1,46,-1,-1,48,50,52,54,56,58,60,62,-1,-1,-1,-1,-1,-1,-1,-1,-1,-1,-1,-1,-1,-1,-1,-1,-1,-1,-1,-1,-1,-1],"split_conditions":[1.3504E4,3E2,4.7E1,7.569387E-1,4.7E1,1.8435E4,5E1,2.00001E0,1E0,2.00001E0,5E1,-1.659902E-1,2.8579E4,2.8579E4,1.887E3,2.2E1,-1.6113144E-1,1.989E3,3.75E2,1.9E3,-1.6757977E-1,-1.6828017E-1,3.1302887E-1,5.435391E-1,6.183034E-1,1.8435E4,-1.6663593E-1,3.5800564E-1,6.259588E-1,-1.3746649E-1,5.419495E-1,3.4478432E-1,2.2839647E-2,1E0,1.622E3,4E2,1.24E2,5.942856E-1,1E1,6.9418067E-1,1.91E3,-1.6611667E-1,-1.8171665E-1,1.12676E-1,-1.5238617E-1,-1.16188444E-1,3.4841752E-1,-2.2166789E-2,-1.656818E-1,-1.4047095E-1,7.597716E-2,2.6482368E-1,-1.4469038E-1,1.1960421E-1,-1.06082164E-1,3.347321E-1,6.314437E-2,-2.342463E-1,1.6987564E-1,-1.417869E-1,2.6401865E-1,2.906127E-1,-9.013331E-2],"split_indices":[5,9,11,17,11,5,11,213,39,213,11,0,5,5,9,11,0,3,10,10,0,0,0,23,73,5,0,0,106,0,24,0,0,50,5,13,12,97,6,106,9,0,0,0,0,0,0,0,0,0,0,0,0,0,0,0,0,0,0,0,0,0,0],"split_type":[0,0,0,0,0,0,0,0,0,0,0,0,0,0,0,0,0,0,0,0,0,0,0,0,0,0,0,0,0,0,0,0,0,0,0,0,0,0,0,0,0,0,0,0,0,0,0,0,0,0,0,0,0,0,0,0,0,0,0,0,0,0,0],"sum_hessian":[9.380189E4,3.7479586E4,5.632231E4,4.480971E3,3.2998613E4,3.3855945E4,2.2466365E4,1.7022276E2,4.3107485E3,2.9256902E4,3.741712E3,9.273392E3,2.4582553E4,2.2260203E4,2.0616158E2,1.3361569E2,3.660707E1,1.7615889E1,4.293133E3,2.8514098E4,7.428045E2,3.171176E3,5.705358E2,5.154953E3,1.94276E4,4.80044E3,1.7459764E4,1.9661226E2,9.549309E0,1.9195435E0,1.3169614E2,1.5982315E1,1.6335745E0,3.9069446E3,3.8618805E2,2.603494E4,2.4791575E3,5.116015E3,3.8938015E1,1.794144E4,1.4861588E3,2.8645347E3,1.9359052E3,1.0382503E0,8.511059E0,1.6122563E0,1.300839E2,4.8112396E1,3.8588323E3,3.1891275E2,6.7275276E1,2.5673447E4,3.6149176E2,1.4946622E3,9.8449524E2,5.077557E3,3.8457783E1,1.102043E1,2.7917585E1,1.7735107E4,2.063323E2,1.2006758E3,2.8548312E2],"tree_param":{"num_deleted":"0","num_feature":"214","num_nodes":"63","size_leaf_vector":"1"}},{"base_weights":[9.5906705E-3,-4.7946265E-1,4.9900833E-1,-5.543959E-1,-3.350928E-1,4.1058157E-2,7.35484E-1,3.6419904E-1,-5.557589E-1,-4.0608874E-1,1.5195844E0,-8.229355E-2,8.808422E-1,5.013343E-1,9.030515E-1,-5.567479E-1,9.384738E-1,-4.4671953E-1,1.0858996E0,-4.3874824E-1,1.9231212E0,-1.896833E-1,7.66409E-1,9.934238E-1,-5.523198E-1,-5.621742E-1,6.9249E-1,9.710923E-1,4.143237E-1,4.8349208E-1,-5.571847E-1,3.6238682E-1,-1.2964956E-1,-4.745176E-1,6.2625504E-1,-4.483795E-1,1.223107E0,1.2163316E0,-5.004294E-1,2.1561682E0,7.49215E-1,-2.1600635E-1,1.460729E0,-3.9831525E-1,8.753142E-1,3.0872393E-2,2.990209E-1,-5.6376845E-1,1.1533702E-1,3.309238E-1,-5.656779E-1,-5.578062E-1,8.2280034E-1,-1.8204601E-1,9.8226213E-1,5.824729E-1,-3.4425226E-1,-1.6768996E-1,-1.14630654E-1,-1.4678858E-1,3.896158E-1,3.2562882E-1,-1.8863973E-1,-1.5712298E-1,6.5088786E-2,2.2415416E-1,4.3803632E-1,1.0822477E-1,4.6560308E-1,-7.091171E-2,-1.6685733E-1,4.9169534E-1,8.491261E-1,-1.7300667E-1,3.0610842E-1,-7.475307E-2,2.8385872E-1,5.305954E-1,-3.5477083E-4,3.0635646E-1,-1.6972505E-1,1.4455238E-1,3.082761E-1,2.573858E-1,-1.11450955E-1,-1.7096247E-1,-4.595133E-2,2.6461563E-1,-1.336195E-1,4.8027195E-2,-1.7026561E-1,1.593452E-1,-1.7496048E-1,2.6883185E-1,-1.4945649E-1,-1.6910383E-1,3.0325789E-2,-2.0165454E-1,2.9659355E-1,8.541069E-2,2.8228492E-1,-1.2136637E-1,2.7424467E-1],"categories":[],"categories_nodes":[],"categories_segments":[],"categories_sizes":[],"default_left":[1,1,0,0,1,1,0,0,1,1,1,1,1,1,1,0,0,1,1,0,0,1,0,0,0,0,0,0,0,0,0,0,0,1,0,0,0,1,0,0,0,1,0,0,0,0,0,0,0,0,0,0,0,0,0,0,1,0,0,0,0,0,0,0,0,0,0,0,0,0,0,0,0,0,0,0,0,0,0,0,0,0,0,0,0,0,0,0,0,0,0,0,0,0,0,0,0,0,0,0,0,0,0],"id":16,"left_children":[1,3,5,7,9,11,13,-1,15,17,19,21,23,25,27,29,31,33,35,37,39,41,43,45,47,49,51,53,55,-1,57,-1,-1,59,61,63,65,67,69,71,73,75,77,79,81,83,-1,85,-1,87,89,91,93,95,97,99,101,-1,-1,-1,-1,-1,-1,-1,-1,-1,-1,-1,-1,-1,-1,-1,-1,-1,-1,-1,-1,-1,-1,-1,-1,-1,-1,-1,-1,-1,-1,-1,-1,-1,-1,-1,-1,-1,-1,-1,-1,-1,-1,-1,-1,-1,-1],"loss_changes":[2.2396467E4,5.061338E2,5.064703E3,7.493359E1,2.1067012E3,1.6499592E3,1.2096621E3,0E0,4.6018555E1,9.3438965E2,4.670194E2,1.2659551E3,3.296881E2,2.6162625E3,5.973535E2,3.0039062E1,8.181204E0,4.4763745E2,8.658731E1,1.0980936E1,1.32245E2,5.3594275E2,1.982461E2,6.0009766E0,1.8170815E0,6.323242E0,1.7775581E3,2.034082E2,2.8062753E2,0E0,9.3828125E0,0E0,0E0,3.8373706E2,2.1919933E2,1.8325915E0,4.1257507E1,5.72237E-1,1.3212261E0,1.3753796E2,3.027707E1,4.6810785E2,8.7190155E1,3.2448166E1,8.500769E1,2.8212936E0,0E0,2.8334427E-1,0E0,3.941412E0,2.748169E0,2.8796692E1,9.5701855E2,1.6503952E1,1.6568945E2,1.9186713E2,3.0688236E1,0E0,0E0,0E0,0E0,0E0,0E0,0E0,0E0,0E0,0E0,0E0,0E0,0E0,0E0,0E0,0E0,0E0,0E0,0E0,0E0,0E0,0E0,0E0,0E0,0E0,0E0,0E0,0E0,0E0,0E0,0E0,0E0,0E0,0E0,0E0,0E0,0E0,0E0,0E0,0E0,0E0,0E0,0E0,0E0,0E0,0E0],"parents":[2147483647,0,0,1,1,2,2,3,3,4,4,5,5,6,6,8,8,9,9,10,10,11,11,12,12,13,13,14,14,15,15,16,16,17,17,18,18,19,19,20,20,21,21,22,22,23,23,24,24,25,25,26,26,27,27,28,28,30,30,33,33,34,34,35,35,36,36,37,37,38,38,39,39,40,40,41,41,42,42,43,43,44,44,45,45,47,47,49,49,50,50,51,51,52,52,53,53,54,54,55,55,56,56],"right_children":[2,4,6,8,10,12,14,-1,16,18,20,22,24,26,28,30,32,34,36,38,40,42,44,46,48,50,52,54,56,-1,58,-1,-1,60,62,64,66,68,70,72,74,76,78,80,82,84,-1,86,-1,88,90,92,94,96,98,100,102,-1,-1,-1,-1,-1,-1,-1,-1,-1,-1,-1,-1,-1,-1,-1,-1,-1,-1,-1,-1,-1,-1,-1,-1,-1,-1,-1,-1,-1,-1,-1,-1,-1,-1,-1,-1,-1,-1,-1,-1,-1,-1,-1,-1,-1,-1],"split_conditions":[1.84E3,4.7E1,1.97E3,9.062291E-1,2.9150248E-1,2.6454276E-1,2.76907E5,3.6419904E-1,7.0877844E-1,6.641382E-1,1.5E1,4.4744298E-1,2.8E1,7E0,2.9E1,1.5574229E0,2.8E1,1.925E3,1.5E1,9E0,2.00001E0,5.1030827E-1,4.3E1,2.7E1,1.966E3,6.21514E-1,4.7E1,4E0,1.11E2,4.8349208E-1,1.838E3,3.6238682E-1,-1.2964956E-1,4.4394583E-1,4.8E1,2.006E3,1.944E3,1.75E3,5.99E3,1E0,1.926E3,6.641382E-1,2.00001E0,1.2E1,1.887E3,4.513494E-1,2.990209E-1,1.936E3,1.1533702E-1,1.4E1,5.832614E-1,8E0,2.9E1,2.00001E0,3E0,2.00001E0,1E0,-1.6768996E-1,-1.14630654E-1,-1.4678858E-1,3.896158E-1,3.2562882E-1,-1.8863973E-1,-1.5712298E-1,6.5088786E-2,2.2415416E-1,4.3803632E-1,1.0822477E-1,4.6560308E-1,-7.091171E-2,-1.6685733E-1,4.9169534E-1,8.491261E-1,-1.7300667E-1,3.0610842E-1,-7.475307E-2,2.8385872E-1,5.305954E-1,-3.5477083E-4,3.0635646E-1,-1.6972505E-1,1.4455238E-1,3.082761E-1,2.573858E-1,-1.11450955E-1,-1.7096247E-1,-4.595133E-2,2.6461563E-1,-1.336195E-1,4.8027195E-2,-1.7026561E-1,1.593452E-1,-1.7496048E-1,2.6883185E-1,-1.4945649E-1,-1.6910383E-1,3.0325789E-2,-2.0165454E-1,2.9659355E-1,8.541069E-2,2.8228492E-1,-1.2136637E-1,2.7424467E-1],"split_indices":[9,11,3,95,92,86,5,0,86,37,6,92,11,6,11,72,11,10,6,6,2,111,11,11,3,74,11,4,12,0,9,0,0,71,11,3,3,9,5,92,3,37,162,6,9,14,0,9,0,13,71,6,4,60,11,162,86,0,0,0,0,0,0,0,0,0,0,0,0,0,0,0,0,0,0,0,0,0,0,0,0,0,0,0,0,0,0,0,0,0,0,0,0,0,0,0,0,0,0,0,0,0,0],"split_type":[0,0,0,0,0,0,0,0,0,0,0,0,0,0,0,0,0,0,0,0,0,0,0,0,0,0,0,0,0,0,0,0,0,0,0,0,0,0,0,0,0,0,0,0,0,0,0,0,0,0,0,0,0,0,0,0,0,0,0,0,0,0,0,0,0,0,0,0,0,0,0,0,0,0,0,0,0,0,0,0,0,0,0,0,0,0,0,0,0,0,0,0,0,0,0,0,0,0,0,0,0,0,0],"sum_hessian":[9.356951E4,4.6802184E4,4.676733E4,3.0808566E4,1.5993618E4,1.59262705E4,3.0841057E4,2.304151E1,3.0785525E4,1.5404716E4,5.8890216E2,1.3887331E4,2.0389391E3,1.2866332E4,1.7974725E4,3.076579E4,1.973616E1,1.4997009E4,4.0770758E2,1.0060187E2,4.8830032E2,1.2328174E4,1.5591572E3,1.890721E3,1.482182E2,1.9599678E3,1.0906364E4,1.5777228E4,2.1974973E3,5.453401E0,3.0760336E4,1.6592575E1,3.1435864E0,1.4618829E4,3.7817953E2,3.328134E1,3.7442624E2,2.9419267E0,9.765994E1,4.067204E2,8.157992E1,1.2135489E4,1.926844E2,1.3309285E2,1.4260643E3,6.519787E0,1.8842012E3,1.4682202E2,1.3961684E0,7.2938457E0,1.952674E3,1.0291017E3,9.877262E3,1.512126E2,1.5626015E4,1.7989635E3,3.9853387E2,3.0448266E4,3.1207068E2,1.4498725E4,1.2010412E2,2.769791E2,1.01200455E2,3.0086271E1,3.1950715E0,1.2585688E2,2.4856937E2,1.4136024E0,1.5283244E0,1.7940844E1,7.97191E1,2.3211101E2,1.746094E2,1.3659277E1,6.792064E1,1.1799504E4,3.359853E2,1.5898712E2,3.3697277E1,1.3504387E1,1.1958846E2,3.9905914E2,1.0270051E3,1.7632401E0,4.7565465E0,1.4428824E2,2.5337934E0,4.185952E0,3.1078935E0,4.8118825E0,1.947862E3,2.299874E1,1.00610297E3,9.358265E3,5.189978E2,6.3981335E1,8.723127E1,5.965336E1,1.5566361E4,9.836684E2,8.152951E2,3.8095703E2,1.7576857E1],"tree_param":{"num_deleted":"0","num_feature":"214","num_nodes":"103","size_leaf_vector":"1"}},{"base_weights":[6.567884E-3,-3.8870728E-1,4.509697E-1,7.959333E-1,-4.160424E-1,6.365094E-1,-5.355588E-1,9.1905094E-4,9.2124254E-1,-2.4107525E-1,-5.442865E-1,7.756098E-1,-4.696444E-1,6.10481E-1,-5.492268E-1,-1.8776819E-1,7.6287013E-1,4.7660045E-2,9.698791E-1,-2.9382846E-1,1.5287235E0,-5.469484E-1,-1.6773084E-1,9.3515974E-1,2.784925E-1,-5.473021E-1,5.086185E-1,-1.6379324E-1,8.402271E-1,9.0169567E-1,-5.5138505E-1,8.2910514E-1,-3.2605103E-1,-1.4499937E-1,9.6560335E-1,-4.210586E-1,3.520391E-1,-1.7439163E-1,9.980211E-1,-3.5427564E-1,7.7853525E-1,1.8297495E0,-4.498889E-1,-5.4968196E-1,-3.858765E-1,1.314282E0,-5.504363E-1,9.5778406E-1,-5.248184E-1,-3.1274747E-2,7.6514065E-1,-5.486241E-1,5.202593E-1,1.3332193E0,-3.0305633E-1,-4.281283E-1,1.0624099E0,1.0019225E0,1.008412E-2,-4.089488E-1,-5.5742043E-1,-1.0194271E-1,2.8662962E-1,-1.4038256E-1,5.6555476E-2,-1.1475787E-1,3.2101077E-1,2.2409903E-1,-1.4297622E-1,3.0630443E-1,-1.5650195E-1,-1.2985109E-1,-2.8023478E-3,-4.1630685E-2,3.4136057E-1,3.518553E-1,8.7251675E-1,-1.5083121E-1,1.6957015E-1,-1.6507216E-1,6.200658E-2,1.8338495E-1,-1.3648647E-1,1.0211194E0,1.0873983E-1,-3.6132704E-2,-1.6582756E-1,-1.678743E-1,2.9389364E-1,1.45424E-1,-1.6490139E-1,1.17560975E-1,-9.273652E-2,2.6572064E-1,8.0982015E-2,3.0801573E-1,-1.6495626E-1,4.4336668E-1,3.2694846E-1,-1.6433346E-1,2.9422608E-1,-1.5144171E-1,4.4588074E-3,3.294535E-1,-1.0050183E-1,5.1717E-2,3.2557946E-1,3.8460943E-1,-1.5441312E-1,-1.6743246E-1,-5.1993765E-2],"categories":[],"categories_nodes":[],"categories_segments":[],"categories_sizes":[],"default_left":[0,0,1,0,0,1,0,1,0,0,1,0,1,0,0,0,1,0,0,1,1,1,0,1,0,1,0,0,1,0,0,0,0,0,0,0,0,0,0,1,0,0,1,1,0,0,0,0,0,1,0,0,0,0,0,0,0,0,0,1,0,0,0,0,0,0,0,0,0,0,0,0,0,0,0,0,0,0,0,0,0,0,0,0,0,0,0,0,0,0,0,0,0,0,0,0,0,0,0,0,0,0,0,0,0,0,0,0,0,0,0],"id":17,"left_children":[1,3,5,7,9,11,13,15,17,19,21,23,25,27,29,31,33,35,37,39,41,43,45,47,49,51,53,-1,55,57,59,61,63,-1,65,67,-1,-1,69,71,73,75,77,79,81,83,85,87,89,91,93,95,-1,97,99,101,103,105,-1,107,109,-1,-1,-1,-1,-1,-1,-1,-1,-1,-1,-1,-1,-1,-1,-1,-1,-1,-1,-1,-1,-1,-1,-1,-1,-1,-1,-1,-1,-1,-1,-1,-1,-1,-1,-1,-1,-1,-1,-1,-1,-1,-1,-1,-1,-1,-1,-1,-1,-1,-1],"loss_changes":[1.6269403E4,1.5876606E3,7.980843E3,1.1017334E2,1.0749775E3,5.646995E3,1.0845557E2,2.1935957E1,4.0544006E1,1.8926268E3,2.7620605E1,2.5853535E3,3.1175256E2,2.2198652E1,2.1858398E1,1.7467133E1,8.117804E0,2.76354E1,4.0082214E1,1.2760382E3,3.503192E2,1.1875E1,1.116133E2,8.156504E2,1.1942546E3,1.240918E1,2.0256955E2,0E0,1.9802666E1,8.808708E-1,5.628174E0,2.528161E0,8.000879E0,0E0,4.123333E0,2.759169E0,0E0,0E0,3.1602173E1,5.0488672E2,3.4642438E2,3.575952E2,4.486759E0,1.1518066E1,3.20664E1,7.915491E1,8.929062E-2,8.0668555E2,9.731445E0,5.69359E2,1.8377368E2,7.9230957E0,0E0,3.671692E0,4.8616802E1,3.7933803E-1,3.302391E0,4.6200085E-1,0E0,5.0854298E1,1.6290283E0,0E0,0E0,0E0,0E0,0E0,0E0,0E0,0E0,0E0,0E0,0E0,0E0,0E0,0E0,0E0,0E0,0E0,0E0,0E0,0E0,0E0,0E0,0E0,0E0,0E0,0E0,0E0,0E0,0E0,0E0,0E0,0E0,0E0,0E0,0E0,0E0,0E0,0E0,0E0,0E0,0E0,0E0,0E0,0E0,0E0,0E0,0E0,0E0,0E0,0E0],"parents":[2147483647,0,0,1,1,2,2,3,3,4,4,5,5,6,6,7,7,8,8,9,9,10,10,11,11,12,12,13,13,14,14,15,15,16,16,17,17,18,18,19,19,20,20,21,21,22,22,23,23,24,24,25,25,26,26,28,28,29,29,30,30,31,31,32,32,34,34,35,35,38,38,39,39,40,40,41,41,42,42,43,43,44,44,45,45,46,46,47,47,48,48,49,49,50,50,51,51,53,53,54,54,55,55,56,56,57,57,59,59,60,60],"right_children":[2,4,6,8,10,12,14,16,18,20,22,24,26,28,30,32,34,36,38,40,42,44,46,48,50,52,54,-1,56,58,60,62,64,-1,66,68,-1,-1,70,72,74,76,78,80,82,84,86,88,90,92,94,96,-1,98,100,102,104,106,-1,108,110,-1,-1,-1,-1,-1,-1,-1,-1,-1,-1,-1,-1,-1,-1,-1,-1,-1,-1,-1,-1,-1,-1,-1,-1,-1,-1,-1,-1,-1,-1,-1,-1,-1,-1,-1,-1,-1,-1,-1,-1,-1,-1,-1,-1,-1,-1,-1,-1,-1,-1],"split_conditions":[2.76907E5,2.00001E0,4.3E1,4.9E1,6.526E3,2.3452355E-1,7.8306115E-1,3.2855892E-1,1.894E3,5.99E3,5.435391E-1,1.975E3,2.8E1,4.5E1,7.0404357E-1,1.615E3,1E1,1.9E3,2.4E1,3.2855892E-1,1.885E3,6.1728376E-1,2.6E1,5.472012E-1,2.8E1,6.6E1,1.975E3,-1.6379324E-1,2.4E1,1.852E3,4.7E1,1E1,2.00001E0,-1.4499937E-1,4.9869415E-1,5.198274E-1,3.520391E-1,-1.7439163E-1,3.9E1,2E2,1.8E3,6.477477E-1,4.5464712E-1,6.41894E-1,1.89E3,1E1,5.1191473E-1,-1.2E2,3.000001E1,1.892E3,3.2E1,3.4272704E-1,5.202593E-1,3.3E1,2.008E3,1.95E3,4.7E1,6.99E2,1.008412E-2,1.799E3,4.9E1,-1.0194271E-1,2.8662962E-1,-1.4038256E-1,5.6555476E-2,-1.1475787E-1,3.2101077E-1,2.2409903E-1,-1.4297622E-1,3.0630443E-1,-1.5650195E-1,-1.2985109E-1,-2.8023478E-3,-4.1630685E-2,3.4136057E-1,3.518553E-1,8.7251675E-1,-1.5083121E-1,1.6957015E-1,-1.6507216E-1,6.200658E-2,1.8338495E-1,-1.3648647E-1,1.0211194E0,1.0873983E-1,-3.6132704E-2,-1.6582756E-1,-1.678743E-1,2.9389364E-1,1.45424E-1,-1.6490139E-1,1.17560975E-1,-9.273652E-2,2.6572064E-1,8.0982015E-2,3.0801573E-1,-1.6495626E-1,4.4336668E-1,3.2694846E-1,-1.6433346E-1,2.9422608E-1,-1.5144171E-1,4.4588074E-3,3.294535E-1,-1.0050183E-1,5.1717E-2,3.2557946E-1,3.8460943E-1,-1.5441312E-1,-1.6743246E-1,-5.1993765E-2],"split_indices":[5,97,11,13,5,86,92,106,3,5,23,3,11,11,111,10,6,10,11,106,9,106,11,73,11,13,3,0,13,9,11,6,2,0,49,97,0,0,11,13,10,17,106,17,3,6,106,9,6,9,11,41,0,4,3,10,11,10,0,10,11,0,0,0,0,0,0,0,0,0,0,0,0,0,0,0,0,0,0,0,0,0,0,0,0,0,0,0,0,0,0,0,0,0,0,0,0,0,0,0,0,0,0,0,0,0,0,0,0,0,0],"split_type":[0,0,0,0,0,0,0,0,0,0,0,0,0,0,0,0,0,0,0,0,0,0,0,0,0,0,0,0,0,0,0,0,0,0,0,0,0,0,0,0,0,0,0,0,0,0,0,0,0,0,0,0,0,0,0,0,0,0,0,0,0,0,0,0,0,0,0,0,0,0,0,0,0,0,0,0,0,0,0,0,0,0,0,0,0,0,0,0,0,0,0,0,0,0,0,0,0,0,0,0,0,0,0,0,0,0,0,0,0,0,0],"sum_hessian":[9.261619E4,4.901749E4,4.35987E4,1.1049146E3,4.7912574E4,3.6697273E4,6.901426E3,1.5057993E2,9.5433466E2,2.0265984E4,2.764659E4,3.2598293E4,4.09898E3,8.082378E1,6.820602E3,1.212961E2,2.9283825E1,5.043466E1,9.0389996E2,1.9680201E4,5.857829E2,2.7452076E4,1.9451282E2,2.4677242E4,7.9210513E3,3.7979285E3,3.010517E2,1.3167405E1,6.765637E1,9.51145E0,6.811091E3,1.3922227E1,1.0737387E2,3.9036996E0,2.5380127E1,3.605109E1,1.438357E1,1.5756363E1,8.881436E2,1.8630693E4,1.0495085E3,5.0849567E2,7.728727E1,2.699159E4,4.6048785E2,3.9421265E1,1.5509155E2,2.430101E4,3.7623306E2,4.8407153E3,3.080336E3,3.7964883E3,1.4402544E0,1.49018E2,1.5203369E2,9.946831E0,5.770954E1,8.388726E0,1.1227235E0,2.7966547E2,6.5314253E3,1.193037E0,1.272919E1,8.4236534E1,2.3137333E1,1.6332624E0,2.3746864E1,1.0709568E0,3.4980137E1,8.752292E2,1.2914425E1,1.5174369E4,3.4563245E3,2.9557635E2,7.539321E2,3.1732812E2,1.9116754E2,7.394015E1,3.347115E0,2.6971943E4,1.9645697E1,2.9325111E1,4.3116275E2,1.1531342E1,2.7889921E1,1.117048E0,1.539745E2,3.4479272E2,2.3956217E4,8.594756E0,3.676383E2,1.9185167E3,2.9221987E3,2.4764622E3,6.0387396E2,2.3115687E0,3.7941768E3,9.028271E1,5.87353E1,1.2817424E2,2.3859457E1,8.36022E0,1.5866109E0,5.647806E1,1.2314814E0,1.046001E0,7.3427253E0,1.5807273E1,2.638582E2,6.5192993E3,1.2125988E1],"tree_param":{"num_deleted":"0","num_feature":"214","num_nodes":"111","size_leaf_vector":"1"}},{"base_weights":[-7.2967927E-3,-1.6340995E-1,4.423236E-1,-5.3396887E-1,6.139713E-1,-5.38234E-1,3.883609E-2,2.1290316E-1,7.262688E-1,-5.3888404E-1,9.3257344E-1,-1.5681776E-1,2.5509623E-1,6.156149E-1,-2.0919694E-1,7.626717E-1,-3.7354785E-3,2.5978634E-1,-5.3945035E-1,-8.675466E-2,5.228051E-1,7.894028E-1,1.2207143E-1,2.5255656E-1,-5.36687E-1,7.794736E-1,-8.079855E-3,-2.7885494E-1,8.0591875E-1,2.2372673E-1,-1.6201445E-1,2.4236187E-1,-1.6478254E-1,1.634351E-1,-1.1102381E-1,2.3433648E-2,2.6928195E-1,-1.702007E-1,3.0638307E-1,2.3725791E-1,-5.500715E-2,2.2976781E-1,-5.764513E-2,-1.1784383E-1,3.565296E-1,2.4369265E-1,-1.5486132E-1],"categories":[],"categories_nodes":[],"categories_segments":[],"categories_sizes":[],"default_left":[1,0,0,0,0,1,0,0,1,0,0,0,0,0,0,1,0,0,0,0,0,0,0,1,0,1,1,0,0,0,0,0,0,0,0,0,0,0,0,0,0,0,0,0,0,0,0],"id":18,"left_children":[1,-1,3,5,7,9,11,13,15,17,19,-1,-1,21,23,25,27,-1,29,-1,-1,31,33,35,37,39,41,43,45,-1,-1,-1,-1,-1,-1,-1,-1,-1,-1,-1,-1,-1,-1,-1,-1,-1,-1],"loss_changes":[1.9481309E4,0E0,7.3566826E3,1.6058838E1,1.6813535E3,6.7321777E0,2.2979362E1,1.3886073E3,7.7510254E2,5.649048E0,3.7153757E0,0E0,0E0,3.5846326E2,6.0333154E2,3.597832E2,3.0904437E2,0E0,5.40625E0,0E0,0E0,7.6883545E1,2.2693155E2,1.8625266E2,1.12028625E2,2.982168E2,8.472853E1,1.7361403E2,3.392105E0,0E0,0E0,0E0,0E0,0E0,0E0,0E0,0E0,0E0,0E0,0E0,0E0,0E0,0E0,0E0,0E0,0E0,0E0],"parents":[2147483647,0,0,2,2,3,3,4,4,5,5,6,6,7,7,8,8,9,9,10,10,13,13,14,14,15,15,16,16,18,18,21,21,22,22,23,23,24,24,25,25,26,26,27,27,28,28],"right_children":[2,-1,4,6,8,10,12,14,16,18,20,-1,-1,22,24,26,28,-1,30,-1,-1,32,34,36,38,40,42,44,46,-1,-1,-1,-1,-1,-1,-1,-1,-1,-1,-1,-1,-1,-1,-1,-1,-1,-1],"split_conditions":[4.7E1,-1.6340995E-1,1.525E3,2.019E3,2.8579E4,1E0,-1E0,1.07E3,1.94E3,2.00001E0,2.9E1,-1.5681776E-1,2.5509623E-1,1.972E3,1.849E3,7.1196723E-1,3.3E1,2.5978634E-1,8.025653E-1,-8.675466E-2,5.228051E-1,4.8E1,9.4E1,4.5274806E-1,3.2E1,7.2951007E-1,1E1,2.018E3,4.8E1,2.2372673E-1,-1.6201445E-1,2.4236187E-1,-1.6478254E-1,1.634351E-1,-1.1102381E-1,2.3433648E-2,2.6928195E-1,-1.702007E-1,3.0638307E-1,2.3725791E-1,-5.500715E-2,2.2976781E-1,-5.764513E-2,-1.1784383E-1,3.565296E-1,2.4369265E-1,-1.5486132E-1],"split_indices":[11,0,9,3,5,77,10,5,9,66,4,0,0,3,10,37,4,0,111,0,0,11,5,84,4,111,6,3,11,0,0,0,0,0,0,0,0,0,0,0,0,0,0,0,0,0,0],"split_type":[0,0,0,0,0,0,0,0,0,0,0,0,0,0,0,0,0,0,0,0,0,0,0,0,0,0,0,0,0,0,0,0,0,0,0,0,0,0,0,0,0,0,0,0,0,0,0],"sum_hessian":[8.062342E4,3.672642E4,4.3896996E4,6.563458E3,3.733354E4,6.5150063E3,4.8451244E1,8.1672573E3,2.9166283E4,6.5127617E3,2.2446585E0,2.8845488E1,1.9605757E1,4.1793853E3,3.9878718E3,2.7780896E4,1.3853857E3,2.0085394E0,6.5107534E3,1.1513304E0,1.093328E0,3.0905374E3,1.0888479E3,1.6548291E3,2.3330425E3,2.7188201E4,5.926969E2,1.0345145E3,3.5087112E2,2.447824E0,6.5083057E3,3.048868E3,4.166953E1,5.856885E2,5.0315942E2,1.3034508E3,3.513783E2,2.2886555E3,4.4387135E1,2.6870617E4,3.175824E2,1.1326863E2,4.7942825E2,9.6063824E2,7.3876335E1,3.495672E2,1.3039235E0],"tree_param":{"num_deleted":"0","num_feature":"214","num_nodes":"47","size_leaf_vector":"1"}},{"base_weights":[-1.3665696E-2,7.56366E-1,-5.301188E-1,7.652717E-1,-4.866163E-1,2.4636425E-1,-5.364567E-1,4.886938E-1,7.907306E-1,6.483144E-1,-5.249285E-1,-3.14904E-1,-5.432143E-1,6.7160094E-1,-1.4530322E-1,-5.000673E-1,7.955952E-1,-8.296325E-2,2.4849595E-1,2.1103427E-1,-1.6141935E-1,-4.653789E-1,7.907801E-2,-5.433893E-1,4.8836043E-1,7.731218E-1,3.615401E-2,-3.27188E-1,8.2583225E-1,2.1806245E-1,-1.6031948E-1,8.0375713E-1,5.437425E-1,9.99145E-1,-4.80452E-1,-1.6474707E-1,4.456859E-1,-1.9836059E-1,-5.4343885E-1,2.1742798E-1,-1.04453914E-1,-2.3959766E-1,2.3731817E-1,1.8489978E-1,-8.1983626E-2,-1.265064E-1,6.1867666E-1,3.1181607E-1,-1.492883E-1,1.5785344E-1,2.421896E-1,-1.7374942E-1,2.5325066E-1,-1.18671015E-1,3.8181296E-1,-1.5544316E-1,3.626581E-2,-1.0175113E-1,3.442944E-1,-1.4398076E-1,2.6869437E-1,-1.631245E-1,-1.5384184E-1],"categories":[],"categories_nodes":[],"categories_segments":[],"categories_sizes":[],"default_left":[0,1,0,0,0,0,1,0,0,0,0,0,1,0,0,0,1,0,0,0,0,0,0,0,0,0,0,0,0,0,0,0,0,0,1,0,0,0,1,0,0,0,0,0,0,0,0,0,0,0,0,0,0,0,0,0,0,0,0,0,0,0,0],"id":19,"left_children":[1,3,5,7,9,-1,11,13,15,17,19,21,23,25,27,29,31,-1,-1,-1,-1,33,35,37,39,41,43,45,47,-1,-1,49,51,53,55,-1,57,59,61,-1,-1,-1,-1,-1,-1,-1,-1,-1,-1,-1,-1,-1,-1,-1,-1,-1,-1,-1,-1,-1,-1,-1,-1],"loss_changes":[3.131714E4,3.503203E2,4.0413574E2,2.2063281E2,1.014555E1,0E0,7.0069336E1,3.072121E2,1.8087305E2,1.5294702E0,3.9072876E0,8.250209E1,8.486328E0,1.3258032E2,1.05156784E2,4.9597397E0,5.8421875E1,0E0,0E0,0E0,0E0,2.270314E1,8.898479E1,6.7089844E-1,1.8838055E0,5.060547E1,5.1192707E1,1.1396291E2,2.7071632E1,0E0,0E0,2.683789E1,3.0474878E2,4.540348E0,2.2663208E1,0E0,1.3474347E2,2.9275095E0,1.5234375E-1,0E0,0E0,0E0,0E0,0E0,0E0,0E0,0E0,0E0,0E0,0E0,0E0,0E0,0E0,0E0,0E0,0E0,0E0,0E0,0E0,0E0,0E0,0E0,0E0],"parents":[2147483647,0,0,1,1,2,2,3,3,4,4,6,6,7,7,8,8,9,9,10,10,11,11,12,12,13,13,14,14,15,15,16,16,21,21,22,22,23,23,24,24,25,25,26,26,27,27,28,28,31,31,32,32,33,33,34,34,36,36,37,37,38,38],"right_children":[2,4,6,8,10,-1,12,14,16,18,20,22,24,26,28,30,32,-1,-1,-1,-1,34,36,38,40,42,44,46,48,-1,-1,50,52,54,56,-1,58,60,62,-1,-1,-1,-1,-1,-1,-1,-1,-1,-1,-1,-1,-1,-1,-1,-1,-1,-1,-1,-1,-1,-1,-1,-1],"split_conditions":[3E2,5.4819244E-1,2.00001E0,2.00001E0,-1.279E3,2.4636425E-1,7E2,1.962E3,5.3229046E-1,2.2E1,1.875E3,2.00001E0,1E0,-3E1,2.01E3,1.968E3,5.8837104E-1,-8.296325E-2,2.4849595E-1,2.1103427E-1,-1.6141935E-1,1.884E3,2.00001E0,2.00001E0,1.199E3,7.569387E-1,2.99E2,1.7309E4,4.41E2,2.1806245E-1,-1.6031948E-1,1.627E3,3.3E1,5E2,8.99E2,-1.6474707E-1,2.00001E0,1.368E3,7.043789E-1,2.1742798E-1,-1.04453914E-1,-2.3959766E-1,2.3731817E-1,1.8489978E-1,-8.1983626E-2,-1.265064E-1,6.1867666E-1,3.1181607E-1,-1.492883E-1,1.5785344E-1,2.421896E-1,-1.7374942E-1,2.5325066E-1,-1.18671015E-1,3.8181296E-1,-1.5544316E-1,3.626581E-2,-1.0175113E-1,3.442944E-1,-1.4398076E-1,2.6869437E-1,-1.631245E-1,-1.5384184E-1],"split_indices":[9,179,188,213,10,0,9,3,177,11,3,213,181,9,3,3,205,0,0,0,0,3,179,193,10,17,10,5,13,0,0,12,11,9,10,0,205,9,61,0,0,0,0,0,0,0,0,0,0,0,0,0,0,0,0,0,0,0,0,0,0,0,0],"split_type":[0,0,0,0,0,0,0,0,0,0,0,0,0,0,0,0,0,0,0,0,0,0,0,0,0,0,0,0,0,0,0,0,0,0,0,0,0,0,0,0,0,0,0,0,0,0,0,0,0,0,0,0,0,0,0,0,0,0,0,0,0,0,0],"sum_hessian":[7.874655E4,3.1612234E4,4.7134312E4,3.1387732E4,2.2450258E2,2.1943243E2,4.691488E4,2.6473938E3,2.8740338E4,6.8111935E0,2.1769138E2,1.3900115E3,4.552487E4,2.0545889E3,5.9280493E2,1.0752484E2,2.8632814E4,1.022309E0,5.788884E0,1.7472837E0,2.1594409E2,1.0057143E3,3.8429715E2,4.551762E4,7.2497873E0,1.7713726E3,2.8321622E2,4.998506E2,9.295434E1,2.3776708E0,1.0514717E2,2.7731904E4,9.0090924E2,9.580408E0,9.961339E2,1.4143321E2,2.4286392E2,7.10807E0,4.551051E4,5.7566314E0,1.4931558E0,1.949754E1,1.751875E3,9.816587E1,1.8505034E2,4.8162628E2,1.8224298E1,8.0223976E1,1.2730364E1,3.512521E2,2.7380652E4,1.899612E2,7.1094806E2,1.497865E0,8.082543E0,9.375093E2,5.8624638E1,1.149058E2,1.2795812E2,6.099491E0,1.0085784E0,4.5038793E4,4.7171783E2],"tree_param":{"num_deleted":"0","num_feature":"214","num_nodes":"63","size_leaf_vector":"1"}},{"base_weights":[-3.6646035E-3,3.8255295E-1,-5.4306006E-1,-1.1473104E-1,8.0858195E-1,1.8730731E-1,-5.4315466E-1,1.3190821E-1,-5.43983E-1,8.0866164E-1,-9.858251E-2,-5.4355013E-1,-4.4180065E-1,-1.5080774E-1,5.6827873E-1,4.0170887E-1,-5.445143E-1,8.482672E-1,8.074081E-1,-1.6308433E-1,-4.06741E-1,-1.623404E-1,4.6807396E-1,-2.0159058E-1,1.0582774E0,8.386712E-1,7.875821E-2,-5.455754E-1,3.5736653E-1,2.703231E-1,2.4135861E-1,2.4141978E-1,2.4595448E-1,-1.5474223E-1,2.1198468E-1,-1.4128923E-1,1.0357475E0,2.8482488E-1,-7.6043874E-2,2.7900943E-1,8.294798E-1,2.637314E-1,-1.1025513E-1,-1.8967096E-2,2.9643667E-1,-1.6587242E-1,-1.5268095E-1,6.35335E-1,-1.5293388E-1,9.742759E-2,3.5356563E-1],"categories":[],"categories_nodes":[],"categories_segments":[],"categories_sizes":[],"default_left":[0,0,0,0,0,0,1,0,0,0,0,1,0,1,0,0,1,1,0,0,0,0,0,0,1,0,1,0,0,0,0,0,0,0,0,0,0,0,0,0,0,0,0,0,0,0,0,0,0,0,0],"id":20,"left_children":[1,3,5,7,9,-1,11,13,15,17,-1,19,21,23,25,-1,27,29,31,-1,33,-1,35,37,39,41,43,45,47,-1,-1,-1,-1,-1,-1,-1,49,-1,-1,-1,-1,-1,-1,-1,-1,-1,-1,-1,-1,-1,-1],"loss_changes":[1.6627521E4,9.854029E3,4.017578E0,2.272282E3,2.5351562E0,0E0,1.0957031E0,1.6817559E3,8.564453E0,5.595703E-1,0E0,6.933594E-2,1.2434181E1,5.0816782E2,7.09327E2,0E0,7.6887207E0,1.0045166E0,1.484375E-1,0E0,2.738075E0,0E0,7.844915E0,4.744629E2,7.04483E1,1.6869507E2,2.4642462E2,1.8200684E0,1.6048729E1,0E0,0E0,0E0,0E0,0E0,0E0,0E0,5.223322E-1,0E0,0E0,0E0,0E0,0E0,0E0,0E0,0E0,0E0,0E0,0E0,0E0,0E0,0E0],"parents":[2147483647,0,0,1,1,2,2,3,3,4,4,6,6,7,7,8,8,9,9,11,11,12,12,13,13,14,14,16,16,17,17,18,18,20,20,22,22,23,23,24,24,25,25,26,26,27,27,28,28,36,36],"right_children":[2,4,6,8,10,-1,12,14,16,18,-1,20,22,24,26,-1,28,30,32,-1,34,-1,36,38,40,42,44,46,48,-1,-1,-1,-1,-1,-1,-1,50,-1,-1,-1,-1,-1,-1,-1,-1,-1,-1,-1,-1,-1,-1],"split_conditions":[1.7309E4,1.3504E4,4.65451E-1,7.19E2,4.7E1,1.8730731E-1,6.510023E-1,1.981E3,1.032604E0,2.5E1,-9.858251E-2,7.547831E-1,3E1,3.5837305E-1,1.6E3,4.0170887E-1,8.28274E-1,5.4819244E-1,1.838E3,-1.6308433E-1,1.96E3,-1.623404E-1,6.00001E0,2.00001E0,7.0982414E-1,3.3E1,4.1357312E-1,5.99E3,2.6E1,2.703231E-1,2.4135861E-1,2.4141978E-1,2.4595448E-1,-1.5474223E-1,2.1198468E-1,-1.4128923E-1,1.99E3,2.8482488E-1,-7.6043874E-2,2.7900943E-1,8.294798E-1,2.637314E-1,-1.1025513E-1,-1.8967096E-2,2.9643667E-1,-1.6587242E-1,-1.5268095E-1,6.35335E-1,-1.5293388E-1,9.742759E-2,3.5356563E-1],"split_indices":[5,5,174,5,11,0,61,3,183,10,0,52,4,61,10,0,99,179,9,0,9,0,8,179,76,11,76,5,11,0,0,0,0,0,0,0,9,0,0,0,0,0,0,0,0,0,0,0,0,0,0],"split_type":[0,0,0,0,0,0,0,0,0,0,0,0,0,0,0,0,0,0,0,0,0,0,0,0,0,0,0,0,0,0,0,0,0,0,0,0,0,0,0,0,0,0,0,0,0,0,0,0,0,0,0],"sum_hessian":[7.981369E4,4.6511117E4,3.330257E4,2.146119E4,2.5049928E4,2.1645489E0,3.3300406E4,1.3630233E4,7.8309565E3,2.504846E4,1.4655473E0,3.3166633E4,1.3377196E2,8.27177E3,5.358464E3,1.4983228E0,7.8294585E3,7.477361E2,2.4300725E4,3.3148086E4,1.8547075E1,1.2097048E2,1.280148E1,7.9391504E3,3.326194E2,3.451354E3,1.9071099E3,7.8206523E3,8.805926E0,3.2986145E2,4.1787466E2,2.0053465E4,4.2472603E3,1.73811E1,1.1659739E0,4.8873134E0,7.914167E0,3.4172284E2,7.5974272E3,3.1080872E2,2.1810652E1,3.339674E3,1.1168016E2,1.6503639E3,2.5674603E2,6.5047373E3,1.3159149E3,2.4301562E0,6.3757706E0,1.8713446E0,6.0428224E0],"tree_param":{"num_deleted":"0","num_feature":"214","num_nodes":"51","size_leaf_vector":"1"}},{"base_weights":[1.9017343E-3,4.0934908E-1,-3.11158E-1,-4.4663903E-1,5.072924E-1,-1.7453021E-1,-5.292806E-1,6.507613E-1,-4.9791348E-1,5.940406E-1,-3.0042887E-1,-1.6200218E-1,-4.995444E-2,-5.4566455E-1,8.600101E-1,9.0004164E-1,-1.5611619E-1,8.903265E-1,-5.052239E-1,6.805819E-1,2.2143501E-1,-1.6421905E-1,2.543295E-1,8.536908E-1,-3.358523E-1,-1.6307078E-1,-5.658875E-1,2.7559784E-1,-3.79777E-1,-1.271573E-1,9.204982E-1,2.1451686E-2,2.8758302E-1,-5.279418E-1,-3.2341227E-1,7.2309864E-1,1.6175771E-1,6.3287055E-1,-1.2650791E-1,4.792081E-1,8.6860865E-1,-4.2616692E-1,5.914726E-1,-1.7484722E-1,-1.6430318E-1,9.3256295E-2,-1.5052645E-1,2.8142726E-1,-1.5934375E-1,-8.962433E-4,-1.6054967E-1,-1.3122313E-1,5.1254924E-2,2.242981E-1,-2.3004185E-2,1.8911938E-1,-1.08957686E-1,2.2124134E-1,-1.9500981E-1,-1.0925267E-1,2.3373544E-1,1.7306909E-1,-2.2509578E-1,2.626914E-1,9.2203476E-2,1.0808203E-1,-1.3588136E-1,2.4393316E-1,-5.5771593E-2],"categories":[],"categories_nodes":[],"categories_segments":[],"categories_sizes":[],"default_left":[0,1,0,0,0,0,1,0,0,0,0,0,0,1,0,0,0,0,0,1,1,0,0,0,1,0,0,0,0,0,0,0,0,0,0,1,0,1,0,1,1,0,0,0,0,0,0,0,0,0,0,0,0,0,0,0,0,0,0,0,0,0,0,0,0,0,0,0,0],"id":21,"left_children":[1,3,5,7,9,11,13,15,17,19,21,-1,23,25,27,29,-1,31,33,35,37,-1,-1,39,41,-1,43,-1,45,-1,47,-1,-1,49,51,53,55,57,59,61,63,65,67,-1,-1,-1,-1,-1,-1,-1,-1,-1,-1,-1,-1,-1,-1,-1,-1,-1,-1,-1,-1,-1,-1,-1,-1,-1,-1],"loss_changes":[1.0552454E4,3.013831E3,1.3941157E3,2.0802094E2,2.260252E3,1.3097037E3,4.10583E2,4.8697456E1,3.624353E1,9.3908496E2,8.87709E2,0E0,5.543183E3,4.477539E-1,1.5647034E1,4.088913E0,0E0,9.847002E-1,1.4323364E1,5.212822E2,7.8622156E2,0E0,0E0,2.839209E1,1.3653215E3,0E0,1.8890381E-1,0E0,1.0161426E0,0E0,3.9410934E0,0E0,0E0,1.182135E1,2.2181961E1,4.2920605E2,4.4097955E2,3.38153E2,6.408662E2,2.4429634E1,1.9291748E1,3.1287866E2,2.4945609E2,0E0,0E0,0E0,0E0,0E0,0E0,0E0,0E0,0E0,0E0,0E0,0E0,0E0,0E0,0E0,0E0,0E0,0E0,0E0,0E0,0E0,0E0,0E0,0E0,0E0,0E0],"parents":[2147483647,0,0,1,1,2,2,3,3,4,4,5,5,6,6,7,7,8,8,9,9,10,10,12,12,13,13,14,14,15,15,17,17,18,18,19,19,20,20,23,23,24,24,26,26,28,28,30,30,33,33,34,34,35,35,36,36,37,37,38,38,39,39,40,40,41,41,42,42],"right_children":[2,4,6,8,10,12,14,16,18,20,22,-1,24,26,28,30,-1,32,34,36,38,-1,-1,40,42,-1,44,-1,46,-1,48,-1,-1,50,52,54,56,58,60,62,64,66,68,-1,-1,-1,-1,-1,-1,-1,-1,-1,-1,-1,-1,-1,-1,-1,-1,-1,-1,-1,-1,-1,-1,-1,-1,-1,-1],"split_conditions":[1.3504E4,3E2,4.7E1,7.569387E-1,4.7E1,1.8435E4,5E1,2.00001E0,1E0,1.977E3,5E1,-1.6200218E-1,2.8579E4,2.9150248E-1,1.887E3,2.2E1,-1.5611619E-1,7E0,3.75E2,1.9E3,3.2E1,-1.6421905E-1,2.543295E-1,1.1E1,4.6399945E-1,-1.6307078E-1,2.8579E4,2.7559784E-1,6.259588E-1,-1.271573E-1,2.6E1,2.1451686E-2,2.8758302E-1,1E0,1.622E3,4.8988038E-1,1.24E2,3.7135017E-1,7.19E2,3.6838403E-1,4.3189853E-1,8.001016E-1,1.9E3,-1.7484722E-1,-1.6430318E-1,9.3256295E-2,-1.5052645E-1,2.8142726E-1,-1.5934375E-1,-8.962433E-4,-1.6054967E-1,-1.3122313E-1,5.1254924E-2,2.242981E-1,-2.3004185E-2,1.8911938E-1,-1.08957686E-1,2.2124134E-1,-1.9500981E-1,-1.0925267E-1,2.3373544E-1,1.7306909E-1,-2.2509578E-1,2.626914E-1,9.2203476E-2,1.0808203E-1,-1.3588136E-1,2.4393316E-1,-5.5771593E-2],"split_indices":[5,9,11,17,11,5,11,213,39,3,11,0,5,92,9,11,0,9,10,10,13,0,0,6,73,0,5,0,106,0,11,0,0,50,5,97,12,76,5,106,97,25,9,0,0,0,0,0,0,0,0,0,0,0,0,0,0,0,0,0,0,0,0,0,0,0,0,0,0],"split_type":[0,0,0,0,0,0,0,0,0,0,0,0,0,0,0,0,0,0,0,0,0,0,0,0,0,0,0,0,0,0,0,0,0,0,0,0,0,0,0,0,0,0,0,0,0,0,0,0,0,0,0,0,0,0,0,0,0,0,0,0,0,0,0,0,0,0,0,0,0],"sum_hessian":[8.272643E4,3.5944434E4,4.6781996E4,3.6901694E3,3.2254262E4,2.876559E4,1.8016408E4,1.641996E2,3.5259697E3,2.912639E4,3.127871E3,7.3116196E3,2.1453969E4,1.7807018E4,2.093917E2,1.35574E2,2.8625597E1,1.7837593E1,3.5081323E3,2.3635893E4,5.490499E3,2.574614E3,5.532571E2,5.155825E3,1.6298145E4,1.6160487E4,1.6465294E3,2.0018095E2,9.210742E0,1.7629097E0,1.338111E2,1.5306003E0,1.6306993E1,3.116777E3,3.9135513E2,2.1845316E4,1.7905769E3,2.51534E3,2.9751587E3,1.9878809E2,4.957037E3,1.485219E4,1.4459536E3,8.370357E2,8.094938E2,1.1501584E0,8.060584E0,1.3255838E2,1.2527107E0,4.232584E1,3.0744512E3,3.1810208E2,7.3253044E1,2.1194484E4,6.5083044E2,9.45921E2,8.446559E2,2.326108E3,1.8923227E2,2.357157E3,6.180018E2,1.8464816E2,1.41399355E1,4.89517E3,6.186738E1,4.8852478E2,1.4363666E4,1.125124E3,3.208296E2],"tree_param":{"num_deleted":"0","num_feature":"214","num_nodes":"69","size_leaf_vector":"1"}},{"base_weights":[1.2720241E-2,-4.5557362E-1,4.1540352E-1,-5.4052675E-1,-2.9901713E-1,5.2085064E-2,5.9039044E-1,2.7479306E-1,-5.419748E-1,-3.7130812E-1,9.067446E-1,-5.0446313E-2,7.268494E-1,4.1075546E-1,7.169266E-1,-5.4303104E-1,7.1843165E-1,-4.1479936E-1,8.274008E-1,-4.1021368E-1,1.0768365E0,-1.4543879E-1,5.7934767E-1,8.103389E-1,-5.269904E-1,-5.351114E-1,5.523667E-1,7.693528E-1,3.4568128E-1,3.5308665E-1,-5.435154E-1,2.717282E-1,-1.2302196E-1,-4.233272E-2,-4.9657762E-1,-4.1514122E-1,9.123847E-1,9.180938E-1,-4.7724965E-1,1.1139855E0,-1.6762394E-1,-2.8365955E-1,1.3197882E-1,-4.0562266E-1,6.8616647E-1,-1.1121794E-2,2.4399409E-1,-5.408682E-1,1.14202976E-1,-1.04644924E-1,-5.498558E-1,9.428137E-1,2.891925E-1,7.762403E-1,-4.824051E-1,1.9236727E-1,9.685551E-1,-1.6372144E-1,-1.0101143E-1,-3.0478107E-2,8.5669E-1,-1.5122646E-1,1.7737265E-1,-1.4997305E-1,6.136472E-2,2.8577903E-1,-2.1143095E-1,9.7045735E-2,3.2537198E-1,-7.211115E-2,-1.6688818E-1,3.641518E-1,1.6139618E-1,-1.2456861E-1,1.5980652E-2,2.5687808E-1,-4.2157553E-2,3.086369E-1,-1.5255234E-1,2.3217113E-1,3.97048E-2,2.0961934E-1,-1.1088719E-1,-1.6445352E-1,-3.2563906E-2,-1.6257125E-1,3.2905537E-1,1.9084589E-1,-1.6573703E-1,-3.319114E-2,2.9501966E-1,-9.622886E-3,2.2703995E-1,1.7250907E-1,2.457381E-1,2.3851028E-1,-1.8285207E-1,-4.4442035E-2,1.7317249E-1,3.1374922E-1,-1.2701523E-1],"categories":[],"categories_nodes":[],"categories_segments":[],"categories_sizes":[],"default_left":[1,1,0,0,1,1,0,0,1,1,1,1,1,0,1,0,0,0,1,0,0,0,0,0,0,0,0,1,1,0,0,0,0,1,1,0,0,1,0,1,0,1,0,0,1,0,0,0,0,0,0,0,0,0,0,0,0,0,0,0,0,0,0,0,0,0,0,0,0,0,0,0,0,0,0,0,0,0,0,0,0,0,0,0,0,0,0,0,0,0,0,0,0,0,0,0,0,0,0,0,0],"id":22,"left_children":[1,3,5,7,9,11,13,-1,15,17,19,21,23,25,27,29,31,33,35,37,39,41,43,45,47,49,51,53,55,-1,57,-1,-1,59,61,63,65,67,69,71,-1,73,75,77,79,81,-1,83,-1,85,87,89,91,93,95,97,99,-1,-1,-1,-1,-1,-1,-1,-1,-1,-1,-1,-1,-1,-1,-1,-1,-1,-1,-1,-1,-1,-1,-1,-1,-1,-1,-1,-1,-1,-1,-1,-1,-1,-1,-1,-1,-1,-1,-1,-1,-1,-1,-1,-1],"loss_changes":[1.56375205E4,5.0974756E2,2.834561E3,5.2909668E1,1.1760613E3,1.00284064E3,6.837129E2,0E0,3.3445312E1,6.637998E2,1.7141034E2,7.529076E2,2.0058209E2,1.6664473E3,3.433369E2,2.1305664E1,4.857445E0,3.7406152E2,4.74635E1,8.276295E0,4.1709473E1,4.193451E2,1.7382166E2,4.390503E0,1.7171326E0,1.02265625E1,1.1115144E3,1.3373828E2,2.0860406E2,0E0,1.1216797E1,0E0,0E0,3.8018808E2,8.2572754E1,1.6378274E0,2.7831604E1,1.0163784E-1,1.4475956E0,3.7395203E1,0E0,3.2358173E2,7.179887E2,2.4432104E1,7.222125E1,2.1557221E0,0E0,3.1524658E-1,0E0,2.943504E1,5.1834106E0,1.8634766E2,9.712023E2,1.3228613E2,1.4328497E1,2.3018521E2,4.6868317E1,0E0,0E0,0E0,0E0,0E0,0E0,0E0,0E0,0E0,0E0,0E0,0E0,0E0,0E0,0E0,0E0,0E0,0E0,0E0,0E0,0E0,0E0,0E0,0E0,0E0,0E0,0E0,0E0,0E0,0E0,0E0,0E0,0E0,0E0,0E0,0E0,0E0,0E0,0E0,0E0,0E0,0E0,0E0,0E0],"parents":[2147483647,0,0,1,1,2,2,3,3,4,4,5,5,6,6,8,8,9,9,10,10,11,11,12,12,13,13,14,14,15,15,16,16,17,17,18,18,19,19,20,20,21,21,22,22,23,23,24,24,25,25,26,26,27,27,28,28,30,30,33,33,34,34,35,35,36,36,37,37,38,38,39,39,41,41,42,42,43,43,44,44,45,45,47,47,49,49,50,50,51,51,52,52,53,53,54,54,55,55,56,56],"right_children":[2,4,6,8,10,12,14,-1,16,18,20,22,24,26,28,30,32,34,36,38,40,42,44,46,48,50,52,54,56,-1,58,-1,-1,60,62,64,66,68,70,72,-1,74,76,78,80,82,-1,84,-1,86,88,90,92,94,96,98,100,-1,-1,-1,-1,-1,-1,-1,-1,-1,-1,-1,-1,-1,-1,-1,-1,-1,-1,-1,-1,-1,-1,-1,-1,-1,-1,-1,-1,-1,-1,-1,-1,-1,-1,-1,-1,-1,-1,-1,-1,-1,-1,-1,-1],"split_conditions":[1.84E3,4.7E1,1.97E3,9.062291E-1,2.9150248E-1,2.6454276E-1,2.76907E5,2.7479306E-1,7.0877844E-1,6.641382E-1,1.5E1,3.318094E-1,2.8E1,4.7E1,2.9E1,